{"layers":[{"out_depth":1,"out_sx":64,"out_sy":64,"layer_type":"input"},{"sx":5,"sy":5,"stride":1,"in_depth":1,"out_depth":8,"out_sx":64,"out_sy":64,"layer_type":"conv","l1_decay_mul":0,"l2_decay_mul":1,"pad":2,"filters":[{"sx":5,"sy":5,"depth":1,"w":{"0":0.20763192022352384,"1":0.19256276963866226,"2":-0.11935376919349305,"3":0.12542004392370706,"4":-0.14368080389391502,"5":0.4751380154695909,"6":-0.238613572753282,"7":-0.5037806046209282,"8":0.18501016135855416,"9":-0.004629371758223525,"10":-0.09843009656924584,"11":0.23483958762624257,"12":-0.22938056160524758,"13":0.06039461238415658,"14":-0.2931707376457628,"15":0.33401142481777596,"16":0.03323480125967857,"17":0.11830188470592913,"18":-0.3888311263526448,"19":-0.0494670005439879,"20":0.38814180905472306,"21":-0.1023146389482688,"22":-0.036955331612372765,"23":0.04339810193812537,"24":-0.09184938700541315}},{"sx":5,"sy":5,"depth":1,"w":{"0":-0.4415327038315837,"1":-0.155824587470047,"2":0.08289377253223149,"3":-0.1291803326950797,"4":0.004979273579283759,"5":-0.42583965027902043,"6":-0.24399197364103592,"7":-0.2649070890069641,"8":-0.07404606688976609,"9":0.2509963928672822,"10":-0.13775306270691084,"11":0.016271128248600938,"12":-0.12418930730469316,"13":0.2767297764388608,"14":-0.33701735672713434,"15":-0.07169273450404326,"16":-0.016822032498696116,"17":0.004234844588142982,"18":-0.022671268975588115,"19":-0.08190379351341193,"20":-0.08244239649468675,"21":-0.15539718296880156,"22":0.3608682972934492,"23":-0.10905488343143528,"24":0.21298293221730102}},{"sx":5,"sy":5,"depth":1,"w":{"0":-0.29167966130123457,"1":-0.3120333879961248,"2":-0.2907109317498212,"3":0.21701681330740863,"4":0.14948888330264265,"5":-0.04420340925729299,"6":-0.3333444190062097,"7":-0.18058111985958197,"8":-0.03710088758334452,"9":-0.30783088836636463,"10":-0.21840576950955945,"11":0.05213006350931567,"12":-0.13562647545510273,"13":0.013619034091660107,"14":-0.06585405480909334,"15":0.022753022723988284,"16":0.032037274764502126,"17":0.09187168572032106,"18":-0.40209416729515063,"19":-0.10070377008029234,"20":0.4670361481068691,"21":-0.04569193914012927,"22":-0.18736921652756303,"23":-0.28854253334602303,"24":-0.18247688755021066}},{"sx":5,"sy":5,"depth":1,"w":{"0":0.07611292844603876,"1":-0.24388321045101616,"2":0.0781013110136942,"3":0.29314915228139676,"4":-0.5011588621575362,"5":-0.014684828437387595,"6":-0.24670964820065974,"7":-0.13541310044104765,"8":0.005099802637427875,"9":-0.16441464390808666,"10":-0.09546472444639802,"11":0.13985615435324747,"12":-0.016883758047492432,"13":0.2552455216967073,"14":-0.1642754787020571,"15":-0.18955840587363926,"16":-0.05200877033907434,"17":0.09768564162881913,"18":-0.03211924060910536,"19":-0.2969595170948935,"20":0.17712964322712846,"21":-0.03697389473893586,"22":-0.050536588678756884,"23":-0.26099537582082843,"24":-0.19806066635034}},{"sx":5,"sy":5,"depth":1,"w":{"0":-0.270743812221288,"1":-0.4207144675248196,"2":-0.0815944281485198,"3":0.2297283096500953,"4":-0.22758047444063315,"5":-0.22763894512765773,"6":-0.20859545775538493,"7":-0.04126191722423883,"8":0.031983797511806966,"9":0.06867192602640257,"10":-0.13437424216884733,"11":-0.1677542131660555,"12":0.05632855848361412,"13":0.08114724921210573,"14":0.016714101756801485,"15":-0.20811767917480598,"16":-0.16112944139511395,"17":-0.05652026429992246,"18":-0.23579879209713142,"19":0.06799144825976361,"20":-0.3430573724232426,"21":-0.17261049123940042,"22":-0.12443146167068712,"23":-0.42266306514708973,"24":0.2830245942163216}},{"sx":5,"sy":5,"depth":1,"w":{"0":0.15004668636984692,"1":-0.09755355789238877,"2":-0.19910501782278317,"3":0.18671813402022794,"4":0.013670901466141173,"5":0.13797525029081453,"6":0.23639809497205755,"7":0.05995762253120999,"8":-0.42134830435324266,"9":-0.16740496758967746,"10":0.12470781686528482,"11":0.02017125065321964,"12":0.2735173803701153,"13":-0.38698853802738586,"14":-0.00044550817502037043,"15":0.18547677079281033,"16":-0.05349383838495958,"17":0.13417054630024644,"18":0.04636965765796508,"19":-0.28848474598455764,"20":0.3810814200283174,"21":-0.15120831538370566,"22":0.10261482386163313,"23":-0.3320593702965351,"24":-0.18516818726479947}},{"sx":5,"sy":5,"depth":1,"w":{"0":-0.14970404528594725,"1":-0.42297996625285517,"2":-0.025810088743547274,"3":-0.5055271588110023,"4":0.0017732538472481653,"5":0.2481910141735948,"6":-0.19946042692064736,"7":-0.13474526463459252,"8":-0.4751621566138775,"9":-0.03164540756336662,"10":0.23671404772748347,"11":0.19802697581607756,"12":-0.284348014229866,"13":0.02394968108498438,"14":0.10041087815815333,"15":0.29582979467167786,"16":0.10145735428426338,"17":0.18447067112457197,"18":0.19168707270059626,"19":0.10566923539487035,"20":-0.030681761539992712,"21":0.05863646386642628,"22":0.1963280783955125,"23":-0.07337482911518242,"24":0.30881889092712367}},{"sx":5,"sy":5,"depth":1,"w":{"0":-0.04581029630716584,"1":0.1608067472544039,"2":0.035928866978053885,"3":0.1735744322021251,"4":-0.16881754331545298,"5":-0.10714276302389662,"6":0.08904880623640109,"7":-0.024149491430367067,"8":0.20710165756542687,"9":0.05037238738738825,"10":-0.1942777529331877,"11":0.17928525712211427,"12":0.1383009895753609,"13":0.22856172985783976,"14":-0.10388315966230395,"15":-0.13128509679393294,"16":0.27847495858561444,"17":0.012261485184867728,"18":0.0199284722831815,"19":-0.16962373153084964,"20":0.2554841235103441,"21":-0.01686034928144004,"22":0.00883664684401937,"23":-0.1772333420020222,"24":0.13227944149018858}}],"biases":{"sx":1,"sy":1,"depth":8,"w":{"0":0.06182988480456332,"1":0.27848272322591283,"2":0.12729977327240927,"3":0.11997991372171148,"4":0.2291200290783,"5":0.23023883185296273,"6":0.1028340899598766,"7":-0.019447617661498308}}},{"out_depth":8,"out_sx":64,"out_sy":64,"layer_type":"relu"},{"sx":2,"sy":2,"stride":2,"in_depth":8,"out_depth":8,"out_sx":32,"out_sy":32,"layer_type":"pool","pad":0},{"sx":5,"sy":5,"stride":1,"in_depth":8,"out_depth":16,"out_sx":32,"out_sy":32,"layer_type":"conv","l1_decay_mul":0,"l2_decay_mul":1,"pad":2,"filters":[{"sx":5,"sy":5,"depth":8,"w":{"0":0.06754842591397939,"1":0.048857966492289163,"2":-0.023078411426263525,"3":-0.13236425512027422,"4":0.12255591216829531,"5":-0.03675965435566693,"6":-0.11286534234943553,"7":-0.014378340393442348,"8":0.02654155435035739,"9":0.1466393893257198,"10":-0.05915468613096146,"11":-0.07296536762677848,"12":0.017536547145581113,"13":-0.17118777918356076,"14":-0.10213669866489704,"15":0.12785197097564424,"16":-0.05994375434296022,"17":-0.0708076875150912,"18":-0.13019766006395372,"19":0.004043941708186144,"20":-0.013000299185034321,"21":0.044378300743350585,"22":-0.05928953340616564,"23":0.06891774829926174,"24":-0.027963406190169095,"25":-0.1810909577279204,"26":0.06808625891179453,"27":-0.1408224313895865,"28":0.0025851670444850634,"29":0.07015037235894385,"30":0.1346175079304648,"31":0.01078567554354002,"32":-0.06420409900914385,"33":-0.021458354537986404,"34":-0.06572498628597405,"35":-0.13171846892171285,"36":-0.056849293222418704,"37":-0.009749795684853166,"38":0.01955049038320581,"39":-0.014912571204391073,"40":-0.015113584103639536,"41":0.06337883523332105,"42":0.0378916485729803,"43":-0.021562003544709822,"44":-0.03447576462724283,"45":-0.01215978699898131,"46":-0.04176181965871356,"47":-0.1562753496047764,"48":-0.11115140031986237,"49":-0.07366841524889575,"50":-0.0359116903361935,"51":0.012409298069908842,"52":0.10014224836726379,"53":0.056684718705145104,"54":-0.07059867362720698,"55":0.01888976501651706,"56":0.088432799990488,"57":-0.0631621354453329,"58":-0.009041323170149468,"59":-0.08191751819054295,"60":-0.057181144871822645,"61":0.13356302989898838,"62":-0.09876990516563627,"63":0.04814510204249542,"64":-0.18063579872762675,"65":-0.03531718467344344,"66":-0.07328883705691216,"67":-0.1614607932141467,"68":-0.10559803611525305,"69":0.012076539211690832,"70":-0.06326612980757615,"71":-0.0322458640361537,"72":0.03536715225708593,"73":0.009222614232191952,"74":-0.09838997550118375,"75":-0.020249560227110584,"76":0.12039204035300118,"77":0.06314325134179583,"78":-0.03809016494079514,"79":-0.006591088563579019,"80":0.01810814512103033,"81":-0.12330508276624774,"82":0.031636453725513686,"83":0.0038767976498478335,"84":-0.08125463948204599,"85":0.08831575910452794,"86":-0.06226696056405083,"87":-0.1232878714217372,"88":0.00025717525548032364,"89":-0.0985318034117732,"90":0.018095591149311547,"91":0.0206870458511337,"92":-0.04284642605717043,"93":-0.07304304203811837,"94":-0.07369744344855579,"95":0.04014464982728563,"96":-0.08108291015254218,"97":-0.1473753065775253,"98":-0.015816048223205093,"99":-0.1794235196744737,"100":-0.10377734613326785,"101":0.031191703077667953,"102":-0.038063717841754705,"103":-0.17810577276052472,"104":-0.05111382637575202,"105":-0.03982176355587339,"106":-0.007864101552489077,"107":0.020271616008222946,"108":-0.016452721483677255,"109":-0.14134182934153292,"110":-0.07021275043675884,"111":0.12740872825747754,"112":-0.11758231754502926,"113":-0.05190495165584138,"114":0.0156923461181455,"115":0.06242195888160748,"116":-0.02629470815880853,"117":0.16150448145250013,"118":0.06931904868212165,"119":-0.07204744759233049,"120":0.05050238895353202,"121":-0.1657259829619723,"122":-0.07567426973033135,"123":0.0021295686240867116,"124":-0.024632178723898702,"125":0.15148706170606238,"126":0.058714982931529006,"127":0.03910965509766394,"128":0.04826097761833108,"129":0.09273417553898068,"130":0.049087371872458346,"131":0.03963953930616102,"132":0.03136992946083328,"133":-0.049566775830740394,"134":0.1043133063169778,"135":0.12806433018064478,"136":0.018627313933579054,"137":-0.06308573421999353,"138":0.05050744576087507,"139":-0.059527444649977675,"140":-0.003593386664590776,"141":0.11321602101343012,"142":-0.02511419855459355,"143":-0.15694188703074732,"144":-0.0469341298114671,"145":-0.077634737596342,"146":0.009869108306449902,"147":-0.11205452455036416,"148":-0.1107466745611288,"149":0.030011457996957754,"150":-0.0559167081349532,"151":-0.06615106267724777,"152":-0.08325492889733078,"153":-0.043284478051637425,"154":-0.0439906927556522,"155":-0.04330531089177596,"156":0.006235512109681474,"157":0.012195749792058945,"158":0.0012043363192615194,"159":-0.02355650443967327,"160":0.07089450386341917,"161":-0.018627813337600746,"162":-0.10716699873891446,"163":0.02021495985068952,"164":-0.021455869380493067,"165":0.03788387132257381,"166":0.08492610848187715,"167":0.08434827014629565,"168":0.032185860154901054,"169":-0.054000441728492284,"170":-0.046507537298345836,"171":0.04095177649597508,"172":0.028661832038858553,"173":-0.03703118137693027,"174":-0.1603502594436259,"175":-0.007707457820860337,"176":-0.019251365913956396,"177":0.011745826784909152,"178":-0.06104754530688034,"179":-0.08508864188393044,"180":0.06467570351332655,"181":0.06766262142208221,"182":0.08198972517814335,"183":-0.1039826433954815,"184":-0.08026232991264083,"185":-0.016249160402684662,"186":0.059088767238096154,"187":0.0992345258015893,"188":-0.04757897073202319,"189":-0.07994011727413065,"190":-0.013790877142946857,"191":-0.04711819050118418,"192":-0.08288607166896873,"193":0.04550230587032209,"194":0.11861125801051868,"195":-0.09683776960946151,"196":0.03247764667589066,"197":-0.06191119127803354,"198":-0.053129889181534384,"199":-0.13188640157825718}},{"sx":5,"sy":5,"depth":8,"w":{"0":0.052036365844602486,"1":-0.013587558575302415,"2":0.013997854369809017,"3":-0.01966423529713232,"4":-0.16438709025785375,"5":0.41394162549062996,"6":-0.06653092212217808,"7":0.12129496721605323,"8":0.0007104148555960076,"9":-0.05215416733952519,"10":-0.10878211365481255,"11":-0.1398463286418482,"12":0.022463792221810466,"13":-0.003299597015836769,"14":-0.1390402151349538,"15":-0.11994800031471735,"16":-0.005535039429956978,"17":-0.1465515749620075,"18":-0.016932825110506422,"19":-0.07682766452538108,"20":-0.15627279290799037,"21":-0.10737689589634461,"22":-0.2006619635020086,"23":-0.13938730033860064,"24":-0.1428121755762174,"25":-0.18383939835147126,"26":-0.10162432402502984,"27":-0.04128880404713234,"28":-0.14465976028536892,"29":-0.026828064727552704,"30":-0.07578280053483565,"31":0.18529603805073122,"32":0.08502105054802453,"33":0.013041652367948318,"34":0.06270325693137652,"35":-0.013989862846929007,"36":-0.17582588460906515,"37":0.010158929241072116,"38":-0.058358514813544524,"39":0.181341282730635,"40":-0.022780439095303053,"41":-0.06545870380056777,"42":0.07263040363751229,"43":0.07216743207691023,"44":-0.033144395566977375,"45":0.3574882980870653,"46":-0.003342439286061428,"47":-0.08289878669327948,"48":0.08497927210692625,"49":-0.11174558676707479,"50":0.09067924691110993,"51":-0.04871950190159356,"52":-0.014240359473824434,"53":0.3101256311032899,"54":-0.2448012612713699,"55":-0.08560660761880352,"56":-0.040280872250356245,"57":-0.1372358089595545,"58":0.026740205736503434,"59":-0.16780352310840868,"60":0.10403998737952559,"61":-0.025701073685610764,"62":-0.12712707276569538,"63":0.04086819528151185,"64":-0.025254521185338615,"65":-0.15584346127074936,"66":-0.06902954246604234,"67":-0.03768484456385377,"68":-0.10244387667316433,"69":-0.06562255370973345,"70":-0.11583577789997689,"71":0.007130521268814834,"72":-0.024468655441955332,"73":-0.003274243150358344,"74":0.10482254672003224,"75":-0.07079568903017468,"76":0.010763426369693543,"77":-0.15368342327498932,"78":-0.11831986179527565,"79":0.12345775737958631,"80":0.15872628079881576,"81":0.017623261191920685,"82":-0.02083833401846873,"83":0.0783676588140344,"84":-0.06099195952819258,"85":0.4621743378703283,"86":-0.10089362695830759,"87":-0.03543072961535914,"88":0.183492134018283,"89":-0.1602194066418861,"90":0.008500774964555306,"91":0.09553328083649534,"92":-0.05729668870862918,"93":0.3090204621836913,"94":0.009255130777045267,"95":-0.030137957924793807,"96":-0.08288261856144802,"97":-0.11735988728410575,"98":-0.07980450476105147,"99":-0.11818697589459254,"100":-0.0015424307137651885,"101":-0.07521724049065413,"102":-0.0630678184102417,"103":-0.04878222771981802,"104":-0.17975232592448404,"105":-0.12283545326653682,"106":-0.06712757293789995,"107":-0.09602123223528694,"108":-0.08017742117541311,"109":-0.18278279218357837,"110":-0.16218950263443013,"111":0.008945880447836967,"112":-0.06533921485948888,"113":-0.013510671058287505,"114":0.041144270188886424,"115":0.023407424199215918,"116":-0.040437593013164644,"117":-0.21154541753882627,"118":0.05085010947419631,"119":0.15602491430567,"120":0.09129986842403182,"121":-0.032762142245298574,"122":-0.03652323988916293,"123":-0.04673435262017407,"124":0.05878950121520068,"125":0.3186712483570104,"126":0.16077727199665268,"127":0.0369913347953946,"128":0.07305239553144126,"129":-0.08891814100221648,"130":0.07563175674985571,"131":0.02704534308785386,"132":-0.021960562105936943,"133":0.3038070374037384,"134":0.3213773916526081,"135":-0.2226555883505126,"136":0.03111397993012303,"137":0.03470444409502743,"138":-0.11169265554634848,"139":-0.024595745739733756,"140":0.13032963898123748,"141":0.07299948190652548,"142":0.21125517040299707,"143":-0.16281146439133767,"144":-0.005757160303279863,"145":-0.0625642686530575,"146":-0.06462783254613219,"147":-0.15992862438709152,"148":-0.05044662856718855,"149":-0.14757047597196285,"150":0.06509741482129866,"151":-0.0908692803458092,"152":0.02996309439920286,"153":-0.11535800398741712,"154":-0.0692664434562636,"155":0.018136686346231733,"156":-0.11047042754106812,"157":-0.20085808974385932,"158":-0.05911580700662182,"159":-0.05575639452696172,"160":0.022905195995978508,"161":0.01755329611973969,"162":-0.011726353660848676,"163":0.10847503529315479,"164":0.11956274798342753,"165":0.22845794613966314,"166":0.3862993718484275,"167":-0.00492768466985217,"168":0.005926689787243006,"169":0.014900621190072101,"170":0.15019616289630489,"171":0.020939409793535344,"172":-0.02946805312904832,"173":-0.05902810734129708,"174":0.3558833610388964,"175":-0.05689582002453421,"176":-0.035480579834117794,"177":-0.06860047449357787,"178":-0.07604449009590467,"179":-0.030931753032631567,"180":0.015711630280625166,"181":-0.09629075447166995,"182":0.23522528555373207,"183":-0.1285155411329644,"184":-0.05479244948188148,"185":-0.09935236704583279,"186":-0.12045698556416866,"187":-0.07531372914092203,"188":0.1527824167655255,"189":-0.013034695928520948,"190":0.2187476924587354,"191":-0.11381133837280805,"192":0.04290685341311629,"193":-0.08754344379973888,"194":0.05532646370352771,"195":-0.09067413030583284,"196":-0.0964472058497125,"197":-0.11378934826187048,"198":0.06822387848766147,"199":0.04073974763885426}},{"sx":5,"sy":5,"depth":8,"w":{"0":0.03383416120497124,"1":-0.0756611741184211,"2":-0.10250295330934767,"3":-0.03371053216375806,"4":0.010370331674992763,"5":0.16693088346296983,"6":0.032796565887480214,"7":-0.031809477371937095,"8":-0.20509998290413306,"9":0.040029518234443916,"10":-0.011299516762347089,"11":0.03621650855991902,"12":-0.02600695094227079,"13":-0.23272096033835676,"14":-0.025159805132719423,"15":-0.0018121600157275071,"16":-0.183860889574962,"17":0.016180782065258435,"18":-0.12068610446777156,"19":0.044086038236151565,"20":0.0848664416415899,"21":-0.25315122078044267,"22":-0.06848416016004123,"23":0.11767779049985651,"24":0.06158769972366688,"25":-0.08831788919822159,"26":-0.11495280878162484,"27":-0.05632928051818125,"28":0.01378799778762156,"29":-0.02260688684981003,"30":-0.12712657392611026,"31":0.09015089411862764,"32":0.16389813834366362,"33":-0.07811213661944834,"34":-0.05867605118144166,"35":0.1169514774893167,"36":-0.04429820999118114,"37":0.15263978402206463,"38":-0.05771487995435655,"39":0.04068235410859484,"40":0.21654689843887984,"41":0.06946920116113191,"42":-0.011093824785609888,"43":-0.06853913200501213,"44":0.011136530251007436,"45":0.009316071025848006,"46":0.12311055131275762,"47":0.04022938668622892,"48":-0.13303761345823112,"49":0.07048758752306224,"50":0.03535810407118543,"51":-0.12846295606781633,"52":-0.06943204793067573,"53":0.01818282868210295,"54":0.002060423503328069,"55":-0.03503241706900189,"56":-0.08576923861679162,"57":-0.054540383603504695,"58":0.0697426137614553,"59":-0.0070026245072115235,"60":0.08764906532938291,"61":0.010049879476713363,"62":0.06584501718723888,"63":0.04269774989916381,"64":-0.02022534850023294,"65":-0.007516292610553925,"66":-0.0546854589977229,"67":-0.002995284321702219,"68":-0.07040872438453562,"69":-0.03454135630125304,"70":0.04380614100730742,"71":-0.12993494333501016,"72":0.06042443493032199,"73":-0.05012075684289591,"74":-0.042753342753658045,"75":0.11000635046788734,"76":-0.15262874307132512,"77":-0.06679525613085441,"78":0.14021281646140835,"79":0.17686593057377303,"80":0.19924351143939886,"81":0.08923674661236668,"82":0.13968707954732296,"83":0.08280229602575016,"84":0.030888289928860654,"85":0.032001713716518145,"86":-0.06488355828843514,"87":-0.04687179038535465,"88":-0.04937445135802791,"89":-0.052038208419007186,"90":0.0691546859304466,"91":-0.10679606288470894,"92":0.008832712900272068,"93":0.04012410321454333,"94":-0.12482458365731257,"95":0.07889922300087925,"96":0.10060256417882925,"97":-0.07382237186048857,"98":-0.1004585422414195,"99":-0.09141073698891322,"100":0.10994510467165597,"101":-0.06995873918690539,"102":-0.14808896408862024,"103":-0.13906700512234982,"104":-0.1483382272101114,"105":-0.17205375049468075,"106":-0.04859846947733351,"107":-0.02006937633042466,"108":-0.08616210341415832,"109":-0.13360877388124795,"110":-0.200856373864266,"111":-0.014532039620308784,"112":-0.04752539240191899,"113":0.01984140554184752,"114":-0.020592750551991203,"115":-0.03887485621369259,"116":-0.1290990671392432,"117":0.019543839950232136,"118":-0.06325906730240635,"119":0.00972813263725391,"120":0.21642024107901192,"121":0.08647654224979942,"122":0.11564590075406186,"123":-0.01988022302737342,"124":0.017687006648698347,"125":0.1759749375022181,"126":-0.12212816602720566,"127":-0.10209166258754142,"128":0.07575988386208514,"129":-0.030858001131075376,"130":-0.019361969872876666,"131":0.03653996553687088,"132":-0.019231140821709007,"133":0.12905175609496786,"134":-0.17806437256686286,"135":-0.09493622124469045,"136":0.016718062571425253,"137":-0.017276780038336062,"138":-0.09608593367175722,"139":-0.05609060239342154,"140":0.05517910897182367,"141":-0.0027462183418873473,"142":0.0017485849212470171,"143":-0.1567648279082674,"144":-0.1198097390371899,"145":-0.22129445274468187,"146":-0.0676314057801895,"147":0.043810838742358645,"148":-0.15555050564137884,"149":-0.1520466790905924,"150":-0.18607673572360195,"151":0.10802333882096894,"152":-0.031969559990469895,"153":-0.1389326006314281,"154":-0.07767341479614596,"155":0.005547248306494463,"156":-0.0913066812497348,"157":0.18875907442702564,"158":-0.10051514272985483,"159":0.06205524201039033,"160":-0.06260411271333882,"161":-0.007793820991899939,"162":-0.05264160380719067,"163":0.050980439339384745,"164":-0.09904765457201631,"165":0.17822045864428207,"166":-0.12366376158790714,"167":-0.08098069901052789,"168":0.09645693910373188,"169":-0.05308730792659549,"170":0.09665705109718882,"171":-0.040624057618736616,"172":-0.07737079652840431,"173":0.12975438882010196,"174":-0.1366266758924073,"175":-0.1717816839601289,"176":-0.0536024548438729,"177":0.05414321888467004,"178":-0.011716704674060404,"179":-0.09139509376114956,"180":0.01926325598605947,"181":-0.16763136865815897,"182":-0.13609198474964948,"183":-0.09984709336239764,"184":-0.1293007421526504,"185":-0.01851659951931275,"186":-0.030295592549229984,"187":-0.04785496325111819,"188":-0.20797196593784698,"189":-0.21702362978713738,"190":-0.08010099337289574,"191":-0.011123387335986144,"192":-0.15536814291303366,"193":0.052735097535529,"194":0.017282372572586885,"195":0.0785352799036674,"196":-0.017716206386611543,"197":0.05760095462893252,"198":0.11789434214478632,"199":0.057652777114028136}},{"sx":5,"sy":5,"depth":8,"w":{"0":0.21413796493450044,"1":0.04643286322701491,"2":0.08526128478267156,"3":0.019838009757124447,"4":-0.10123778455877938,"5":0.3597640983955883,"6":-0.07275707860815347,"7":-0.08919893141483912,"8":-0.037505962958676815,"9":0.006740340208617729,"10":-0.04220714527293661,"11":-0.05577600809782874,"12":-0.07762902802896031,"13":0.007842276950340295,"14":-0.002367652167697659,"15":-0.013065628443774464,"16":-0.1306783618329336,"17":-0.14853463558560187,"18":-0.030223046414599306,"19":-0.20637568353966285,"20":-0.052876373498832584,"21":-0.14795938377323753,"22":-0.14876505668938408,"23":-0.0417008834553392,"24":-0.012396719795430262,"25":-0.21941858445235685,"26":0.05365131886978504,"27":-0.061615261350259916,"28":-0.15086514852887323,"29":0.09945208962222807,"30":0.03155033034104639,"31":-0.04573644976893939,"32":0.012294219208668983,"33":-0.08711507086948288,"34":0.031198101579371786,"35":0.02463165342367424,"36":-0.1414332460805951,"37":0.1491259594058233,"38":-0.020653320449961182,"39":0.056519461708706094,"40":0.1107097143131996,"41":-0.0028804610934442284,"42":-0.12938902217104262,"43":-0.08520119633041089,"44":0.0012515090087816718,"45":0.45508317368547335,"46":-0.1716230472420068,"47":-0.04493522062972705,"48":-0.010203866792832287,"49":-0.032836586129548234,"50":0.00689136383843169,"51":0.042505939417360805,"52":0.09042339500409793,"53":0.08101532973721152,"54":-0.06623680471487942,"55":-0.03779573650479648,"56":-0.21415876979045328,"57":-0.17330092200975744,"58":-0.012931740340359559,"59":-0.09461669644811871,"60":0.05204744714617173,"61":-0.16306350365858555,"62":-0.3908497627350082,"63":0.0563799688580965,"64":0.05520717793061176,"65":-0.11521313454198533,"66":0.07744857469180402,"67":-0.1042617194351217,"68":-0.10504474134060629,"69":0.08519404426840504,"70":0.01877655346026849,"71":-0.00424423510255642,"72":-0.009560637287953111,"73":-0.007433659169821986,"74":0.09715057002057706,"75":0.05008343595936436,"76":-0.03606230293842365,"77":-0.003163171147823673,"78":-0.10912577393805759,"79":0.021726796685041447,"80":0.04877607130284818,"81":-0.030936455948586288,"82":-0.044620905866327935,"83":0.18774002533421083,"84":-0.12939513715096948,"85":0.5209552061642002,"86":0.09860928661688534,"87":-0.14203757506240972,"88":0.07018742639257732,"89":-0.078426574007981,"90":-0.13433631903505314,"91":-0.04156325568434815,"92":-0.03064863203021158,"93":0.14774465620811963,"94":0.06257051542392013,"95":0.07425017982202864,"96":-0.01487225444205971,"97":-0.03969989634993978,"98":-0.06528421719251698,"99":0.005777176074765237,"100":-0.11522712487497888,"101":-0.14464618633253112,"102":-0.13612438524543255,"103":-0.0026353224850004533,"104":-0.0893507490567324,"105":-0.198799699297073,"106":0.034029035571325444,"107":-0.037733601107319395,"108":-0.037392835648768566,"109":-0.15387805585921904,"110":-0.14628658720939985,"111":-0.16554362113942572,"112":0.03756466015372575,"113":-0.06903130623172653,"114":0.07552518274962183,"115":0.06944595168259007,"116":0.0579405345296523,"117":0.04806899049955207,"118":0.007050674897400363,"119":0.013803226923311727,"120":0.12523864240222057,"121":-0.02224671096018483,"122":-0.03659009388132865,"123":-0.026238845937772197,"124":-0.11262997919146958,"125":0.38439022414195034,"126":-0.04561974478665338,"127":-0.09104679562789565,"128":-0.0008474558185514303,"129":-0.04512545828448487,"130":0.030104749175496628,"131":-0.011823941668534097,"132":-0.05320190221566054,"133":0.007752677475694447,"134":0.005967844448811358,"135":-0.11806283989838653,"136":-0.1260728533185701,"137":-0.036652126600407293,"138":0.027466989436436898,"139":-0.094534552222394,"140":0.16025825873001626,"141":0.015665756161432478,"142":0.05621633360616936,"143":0.040012613508496206,"144":-0.129337742142148,"145":-0.1659283990020306,"146":0.002913625477681601,"147":-0.0005420234089680751,"148":-0.14325743618707124,"149":-0.08771766885986261,"150":-0.054114303933336765,"151":-0.04608625316053649,"152":0.024440283724148783,"153":0.06568539864339876,"154":-0.05488186484874494,"155":0.05117975985779147,"156":-0.014579275169304264,"157":-0.09406781943657347,"158":-0.08970219449139288,"159":-0.013870541254499203,"160":0.07909154855677726,"161":0.015369145782693843,"162":0.034217596942084205,"163":0.046540157486907395,"164":-0.05067640904176967,"165":0.2967772701775878,"166":0.27643080283861926,"167":0.13952283729847986,"168":-0.011944774516676642,"169":0.05892317248022241,"170":-0.04503412907694552,"171":-0.05558793206979844,"172":0.04817517337069232,"173":0.17923708880138184,"174":0.20874292857683047,"175":-0.19444382225081683,"176":-0.1360572043142306,"177":-0.028379592234907224,"178":-0.20256953048723275,"179":0.030461391763176995,"180":-0.09072136519139469,"181":-0.0803998846954534,"182":0.16102145851583224,"183":-0.019549422227966254,"184":0.08378260424050481,"185":-0.017241261051021223,"186":-0.0647072202521322,"187":-0.10453064878036744,"188":-0.1742042927333015,"189":-0.20626758559335792,"190":0.12302649312775635,"191":-0.05053595333027772,"192":0.06252233931851942,"193":-0.09922855500274577,"194":-0.021290419692155296,"195":0.055757678707555276,"196":-0.15862912031947457,"197":0.01707518447457166,"198":0.1171140572393043,"199":0.006621479339326871}},{"sx":5,"sy":5,"depth":8,"w":{"0":0.05250630697371825,"1":0.06475522322554565,"2":0.009708989091211956,"3":0.057607260611924664,"4":-0.0010337395636727319,"5":-0.08474161940607496,"6":-0.03126567355113535,"7":0.005079914293314151,"8":0.008601037449889019,"9":-0.08464242142643709,"10":-0.025293137978955275,"11":0.014254818600999643,"12":-0.15313761313585475,"13":-0.14768598409217765,"14":-0.08333644757243007,"15":-0.12454270002123355,"16":-0.013143536220110533,"17":-0.0018218365242138115,"18":-0.059894931339444235,"19":0.0901047118487396,"20":0.06930104726656705,"21":0.0325024049636164,"22":-0.014437023319607011,"23":-0.06553171711933203,"24":-0.11834612813331025,"25":-0.21229782831525718,"26":-0.02610975859902883,"27":-0.06863921159133413,"28":-0.2106281374477551,"29":-0.049971045149463454,"30":-0.07694743139397557,"31":-0.08872085678994159,"32":-0.0003106667834537609,"33":-0.13952177794262502,"34":0.04856130269483347,"35":0.033981675569458636,"36":-0.09660198763013504,"37":0.019863627156911076,"38":-0.018466758122298803,"39":-0.10186799543982708,"40":-0.020297466953126064,"41":-0.046289911854029475,"42":-0.15720709684840609,"43":0.04528084586623023,"44":0.02074408226413256,"45":0.035099000497788614,"46":-0.0623512795642706,"47":-0.0685396175715052,"48":0.12673320496124602,"49":0.07067670028332697,"50":-0.02866746555128755,"51":-0.010526997009589208,"52":0.05220704477622708,"53":0.10053728206869011,"54":0.004303387197284262,"55":-0.04035601958465934,"56":0.0007420265268796285,"57":0.1848386992851428,"58":-0.0021882493592096904,"59":-0.09597306291779528,"60":-0.04987149716591571,"61":-0.0662187931152271,"62":0.08879702902253289,"63":0.09843370492153838,"64":-0.030607461036555067,"65":-0.07478342422477717,"66":-0.031357394213506085,"67":0.024602468048925543,"68":-0.03764333907985042,"69":0.18051445941935867,"70":0.05900734559710131,"71":0.0161279551451841,"72":-0.008704754808709688,"73":-0.07468058666647705,"74":0.013361428008045993,"75":-0.0946893473935385,"76":-0.044357920304707706,"77":0.12312134146008642,"78":0.02217764948114919,"79":-0.0735811656481356,"80":-0.12168913598615257,"81":-0.0974926363570646,"82":-0.05209283551506751,"83":-0.06356603767153472,"84":-0.11812905526076678,"85":-0.18998347950509797,"86":-0.006966987561010591,"87":-0.027400318535832253,"88":0.06950394682087642,"89":0.09662773528601347,"90":0.008928749186169935,"91":-0.02994545477690652,"92":0.06178588060462807,"93":-0.06086785195968246,"94":0.12011778874198785,"95":0.05924650282141839,"96":0.10884147480440604,"97":0.053007058744224386,"98":-0.11465613038046821,"99":-0.015039814403404449,"100":0.022633529456294706,"101":-0.061324253634260605,"102":-0.06695475297166993,"103":-0.009041349027495704,"104":-0.08924060409559013,"105":-0.2631595431169937,"106":-0.06575449044724986,"107":-0.0982678660603463,"108":-0.2014922303751186,"109":0.11963872875495388,"110":-0.13378385578982796,"111":0.042397418184340986,"112":-0.054608403659234576,"113":-0.11657233934739876,"114":-0.06943182361459055,"115":-0.05211321251334303,"116":0.08445932448328752,"117":-0.0049837203004995225,"118":0.03384085817161934,"119":-0.05439190325804498,"120":-0.11192379071014341,"121":-0.09565582576514702,"122":-0.03576525375468908,"123":0.030999055538304007,"124":-0.0678994103497001,"125":-0.1446395891416194,"126":-0.09668837725400631,"127":-0.07772980649284009,"128":-0.10809746059948766,"129":0.016210430005410892,"130":0.08911731063552149,"131":0.021982808925647752,"132":-0.0898090844280566,"133":-0.12653750693850663,"134":0.07704176828002171,"135":0.10533847695203552,"136":0.11025676037110452,"137":0.11738830815253083,"138":-0.1574954465659591,"139":0.05348574674717927,"140":-0.05623289356268396,"141":0.010589341769357514,"142":-0.04851387567606681,"143":-0.015195462187289744,"144":-0.03900781255261972,"145":-0.019274854008537814,"146":-0.011338087603352571,"147":-0.16801632498560684,"148":-0.029659599447095238,"149":0.11571734701892464,"150":-0.11421191531322551,"151":-0.019727804106703294,"152":-0.010862817222812158,"153":-0.08599590731732094,"154":0.015641413468976222,"155":-0.040688184972728726,"156":-0.02514767217854911,"157":0.10792974710331359,"158":-0.13668783276139607,"159":-0.15944963183979324,"160":-0.004111318942383151,"161":-0.05572352106509434,"162":-0.016891258518723522,"163":-0.04651779481789086,"164":0.0030940453146136074,"165":-0.2311096284289568,"166":-0.03591590159456385,"167":-0.023898418599671588,"168":-0.08557837407556083,"169":0.049362415588027994,"170":-0.04375521777836233,"171":0.06893706640517076,"172":0.03220047154805146,"173":-0.1206911002213817,"174":-0.07786555054315263,"175":-0.003031537782579287,"176":0.12522145219937605,"177":-0.07830739841033996,"178":-0.07386125478090157,"179":0.12077811174642322,"180":0.07427329074718307,"181":0.0027352401281810225,"182":-0.08225683101341467,"183":0.012871758459537336,"184":-0.02852424055390333,"185":0.013599053695963793,"186":0.030143805639787857,"187":-0.03002699421429541,"188":-0.12079362509752915,"189":0.1288199401136524,"190":-0.03543101647041394,"191":-0.04486337085613723,"192":-0.12770918044858354,"193":-0.09495927783528636,"194":0.04993993698880432,"195":0.07561621768190382,"196":-0.0885787791530618,"197":0.01007660361393765,"198":-0.12389199023124536,"199":-0.16028944502858358}},{"sx":5,"sy":5,"depth":8,"w":{"0":0.06853086707511027,"1":-0.03926769757307726,"2":0.09906438820261623,"3":0.07744808616972239,"4":-0.15139720354795552,"5":0.020550503595192202,"6":-0.13372646094787638,"7":-0.10828846461114805,"8":-0.02196320816568808,"9":-0.03644673385837567,"10":-0.05818251941973265,"11":-0.15449705650997045,"12":-0.07887107253110784,"13":-0.17656975876860498,"14":-0.08859858078816062,"15":-0.02800563073412299,"16":0.000997832852221661,"17":0.13057268208222197,"18":-0.09024441714087889,"19":-0.017523627972050843,"20":0.3480240906349284,"21":0.034091910618005004,"22":-0.06389574017129114,"23":0.10274768831406192,"24":0.019230741236759087,"25":-0.04033165265264174,"26":-0.15534206779081916,"27":-0.09545962625422903,"28":0.0539682160352313,"29":-0.05092773243182047,"30":-0.007185588231593766,"31":0.020185220078577103,"32":-0.10522450996050113,"33":-0.05416939341053948,"34":-0.08513138946564959,"35":0.12048636185611414,"36":-0.12217498378887794,"37":0.011037100075199346,"38":0.059687004203809485,"39":0.04324214262828288,"40":-0.0398111999652808,"41":0.20788808008253154,"42":0.019929060337149494,"43":-0.062457807144414824,"44":-0.09948022273818319,"45":-0.0814163808277696,"46":-0.11530621544799419,"47":-0.13801540632347634,"48":-0.07744312041641738,"49":-0.021797438167981686,"50":0.1318174301457345,"51":-0.09112394369624968,"52":-0.026826422412637344,"53":-0.0001054411272327924,"54":-0.0013447004618262724,"55":-0.024397080253431916,"56":-0.19006970015849492,"57":0.009735837077710632,"58":-0.007891946092266537,"59":-0.05507410202121797,"60":0.07377648067800302,"61":-0.01582071083596622,"62":0.12832211188818343,"63":0.02668313174715123,"64":0.04953367886781666,"65":0.07724487101423896,"66":-0.2443272356358879,"67":-0.11356437852695232,"68":-0.16402261212808056,"69":-0.04739558989883896,"70":-0.06404555032938938,"71":0.08377966749052825,"72":-0.11089170608589459,"73":-0.06776477796294303,"74":0.009459568291564493,"75":0.015636140527287724,"76":0.0012474380056141504,"77":-0.048333838426499263,"78":-0.04172815287697547,"79":-0.06663243628886929,"80":-0.018834846770269673,"81":0.026551358159037534,"82":0.028706232955206527,"83":0.15539955456954058,"84":0.007647138415346144,"85":-0.21069881521619027,"86":0.08961473543440311,"87":0.005730934920273988,"88":-0.14383453553177944,"89":0.00156018788461257,"90":-0.09379224248985688,"91":0.042170380634516384,"92":-0.032143299181744495,"93":-0.045779048924506544,"94":-0.04061656587205924,"95":0.005851935721543487,"96":-0.053580209864594705,"97":0.025831577967196328,"98":-0.003411424262103638,"99":-0.01140167134918058,"100":0.11121168255729615,"101":-0.15476689549390277,"102":0.15287563456389208,"103":0.11755613441654118,"104":0.003088441670806732,"105":-0.06442433056053977,"106":0.03599828836335119,"107":-0.1545009730023213,"108":-0.19333328417864404,"109":0.027943177813611962,"110":-0.06205653078256388,"111":0.05236930845066702,"112":0.01470783875578172,"113":0.03768289479110469,"114":-0.0746947309871541,"115":-0.11886230017959548,"116":-0.02556288932143123,"117":-0.03448221898989033,"118":0.09252285287386326,"119":-0.007544166376032595,"120":-0.3022060761949266,"121":-0.038820681779027526,"122":0.08241870353967065,"123":0.0831782727087427,"124":-0.0037335150181305975,"125":-0.2032687436323224,"126":-0.03566348061079463,"127":-0.15739584235776383,"128":-0.21443333456012015,"129":-0.14018680529009028,"130":-0.11829410687055252,"131":-0.014078318787423803,"132":-0.07725460252022587,"133":-0.27792941449505204,"134":0.03211437536045232,"135":-0.09158182614592954,"136":0.01526576502140467,"137":0.19749499864073122,"138":-0.13037859197376792,"139":0.1073040866764909,"140":0.10779293968831254,"141":-0.0025467905794621347,"142":0.14776339679297085,"143":0.15866507707425054,"144":0.06174932257008539,"145":0.03941304482056311,"146":-0.11891086548372364,"147":0.004701959437317572,"148":-0.06606748831507722,"149":-0.06511792050437167,"150":-0.17305418901319394,"151":0.2043837649288577,"152":-0.04506729925889157,"153":-0.00981135080438221,"154":-0.08802629485961407,"155":0.07042052932598068,"156":-0.1655351970668565,"157":-0.011085663469190583,"158":-0.0009061888873102424,"159":0.022146557062499683,"160":-0.16416512517469023,"161":0.03309557768044895,"162":-0.0635747665899808,"163":0.07827983320168472,"164":-0.049639872268804924,"165":-0.06637960585313013,"166":0.06365937768829973,"167":-0.010297736767163971,"168":-0.1775047132503929,"169":-0.1338512259436953,"170":0.14821520640639888,"171":-0.06214279300836138,"172":-0.06512834268767301,"173":-0.13674669636058503,"174":-0.15141533577357055,"175":-0.07560776810883055,"176":-0.134095261842008,"177":0.046828107866079514,"178":-0.10033733468303709,"179":0.11172426875062572,"180":-0.06038953875187496,"181":-0.07849709369570224,"182":-0.03186700791701881,"183":0.02236944885963972,"184":0.05719841348677963,"185":-0.1296033233748253,"186":-0.07628803658353246,"187":0.015579349089101609,"188":-0.021472000491873984,"189":0.06211868042014771,"190":-0.07897064897497866,"191":0.09305583098045642,"192":0.22075512127974492,"193":-0.06158126031588062,"194":-0.05657673979397085,"195":-0.015954066119352496,"196":-0.14478673443491782,"197":0.008079727512940615,"198":-0.12252688428174124,"199":-0.027402154164636684}},{"sx":5,"sy":5,"depth":8,"w":{"0":-0.14067789026045302,"1":0.02551383728728227,"2":0.05972154955477337,"3":0.07468158131378365,"4":0.1310067233298845,"5":0.06664057001471253,"6":-0.054834262142368966,"7":0.023937384179810253,"8":0.007667940894352955,"9":0.06257985878275252,"10":0.0058011039617694975,"11":-0.1462321400223373,"12":0.11474278898858065,"13":0.08568351556767484,"14":-0.0073758218066366996,"15":0.061765135179744676,"16":0.15729460200564352,"17":0.11465049482092274,"18":0.08920899292503828,"19":-0.004330801067056356,"20":0.03794104948234452,"21":0.027891539833584545,"22":0.03097088325259364,"23":0.1297279543238497,"24":0.11726388735082444,"25":0.018538324604182175,"26":0.006933958664808022,"27":0.04111127104508978,"28":-0.030106530993287823,"29":-0.023574771858435553,"30":-0.06907629613738504,"31":0.08452557330407408,"32":-0.14190564155884308,"33":0.0020086853778196073,"34":0.07735073890954546,"35":0.021587078576619675,"36":-0.06981956117625394,"37":0.08460020611747802,"38":0.06378756582059013,"39":-0.012994218442200393,"40":-0.01086733661644929,"41":0.02537746250679197,"42":-0.025258411034390447,"43":0.04119165391791016,"44":0.03098908384089152,"45":-0.064771048940446,"46":-0.10789005514598742,"47":0.06576835897996151,"48":0.01880625823769153,"49":0.04147131259658624,"50":-0.03902112262702411,"51":-0.10723141641864514,"52":0.058171932002190355,"53":-0.16575110462241077,"54":-0.12737246219188716,"55":0.050139978344620625,"56":-0.07590509926032186,"57":0.0811969230677281,"58":0.0700082437875054,"59":-0.05952855778429436,"60":-0.029225510959585678,"61":0.06763861482866432,"62":-0.012460414233388924,"63":0.028597873549961746,"64":-0.04342773082172154,"65":-0.12951468513568704,"66":-0.18849458258554633,"67":-0.10210198072760117,"68":-0.05658254307723946,"69":-0.022723282424648883,"70":-0.07552233608272664,"71":-0.07208223627532849,"72":0.05934067809473983,"73":-0.18364490421269009,"74":-0.05195292148859635,"75":0.1127131496589104,"76":-0.11852171573610636,"77":0.053340975448894434,"78":0.03901037038973359,"79":-0.08221205408337451,"80":-0.12305531802105876,"81":-0.0870495902578331,"82":-0.046564263464495395,"83":0.014472086057779021,"84":-0.05818203832547953,"85":0.03396984452880158,"86":-0.04768374150917797,"87":0.03275475621346376,"88":-0.04076893589133938,"89":0.008095247392833084,"90":-0.06536118759155762,"91":0.10298002435925908,"92":0.04588116750718386,"93":-0.11315339624148885,"94":0.044708853077146754,"95":-0.05614903137142472,"96":0.09688261267817164,"97":-0.0816749902840299,"98":0.02530974077815526,"99":-0.08340685583909695,"100":-0.027427128468199453,"101":0.13831981651974407,"102":0.02615861396734306,"103":0.04791046978331333,"104":-0.09285702370385092,"105":-0.03509669766872542,"106":-0.13342506057604628,"107":-0.10001965856833818,"108":-0.10184650129972404,"109":0.031133232627925573,"110":-0.0228460636611422,"111":-0.02749486814990775,"112":-0.1109680239202139,"113":-0.19674791398570793,"114":-0.08775630222574987,"115":0.21128836882809973,"116":-0.01963985887230577,"117":0.21749549040349672,"118":0.06300011758851784,"119":0.13638887763313928,"120":-0.09863368922823691,"121":-0.11019037238129659,"122":0.06463276980329945,"123":-0.08444360954961386,"124":-0.0669953984119706,"125":-0.03427850646218191,"126":-0.10613439642870223,"127":-0.165299226109273,"128":-0.03878755333410237,"129":-0.01016974725622668,"130":0.01903362227128942,"131":-0.1142364659474311,"132":0.051736215312032,"133":-0.06024731828658543,"134":-0.006221459449060208,"135":-0.01747304322833284,"136":-0.03184248313621946,"137":0.062300177504995835,"138":-0.1167204691436926,"139":0.08170592217528815,"140":-0.020792331233894432,"141":0.0028013699408914704,"142":-0.007873506181549243,"143":-0.08595310193285569,"144":-0.16693511303556016,"145":-0.11083006573380827,"146":-0.07829110717149863,"147":0.09239095756402722,"148":-0.02778155878515272,"149":-0.13214824787181728,"150":-0.022583631043478755,"151":-0.01969382995620412,"152":0.09273568984967404,"153":-0.1843987888647759,"154":-0.011409387006067079,"155":0.06898435119773225,"156":-0.14205841877487932,"157":0.18991795835010608,"158":0.06530902482793846,"159":0.02063091006540212,"160":-0.07355711106415687,"161":-0.006217827207148172,"162":0.024194133022603526,"163":-0.04928304745582283,"164":0.17679906517655347,"165":-0.023240755502355864,"166":-0.06431144841141916,"167":-0.09313356222021538,"168":-0.10189193139315599,"169":0.011904428247044678,"170":0.06589052508118577,"171":0.0025987464464004148,"172":0.023022391440611578,"173":-0.05799917430473938,"174":0.0304153997484056,"175":-0.04825288760371987,"176":-0.10333174596862824,"177":0.0015836234503514618,"178":0.086109151061735,"179":-0.05062947042968409,"180":0.13999223129955418,"181":-0.04606563694082368,"182":-0.029824897566304416,"183":-0.01473872233699161,"184":-0.02457053899098955,"185":-0.16636619548572243,"186":0.09404617786627315,"187":-0.16149623213511097,"188":-0.2002642770189456,"189":-0.1532637266511977,"190":-0.03185627247999351,"191":-0.012671440240144905,"192":0.04960365333313345,"193":-0.048278267914693654,"194":-0.11930344572619163,"195":0.09125532032731948,"196":-0.08518515585207549,"197":0.04081042396992094,"198":-0.012046782280915654,"199":-0.056668970027085375}},{"sx":5,"sy":5,"depth":8,"w":{"0":-0.22788294960874897,"1":-0.12819440675307767,"2":-0.043155702513750234,"3":0.030927262195552207,"4":0.09499859291656204,"5":-0.19309247776694205,"6":-0.294009813298893,"7":-0.07704675527557264,"8":-0.02188996222123974,"9":0.04452155003913701,"10":0.01602624764462856,"11":0.05458770508594148,"12":0.1097308841545387,"13":-0.09081090687106998,"14":0.03190873991442989,"15":0.1437116612328409,"16":0.06991181532912244,"17":-0.06941066407942623,"18":-0.0307675329368868,"19":0.008548021628919362,"20":-0.0014258062597028894,"21":0.013564082071923762,"22":-0.0037998863173814407,"23":0.07349344134836822,"24":-0.012931282701005803,"25":-0.018331555548466855,"26":-0.0025190061551960026,"27":0.04297807602322539,"28":-0.05004425908475168,"29":-0.13275182289283877,"30":0.04902020113586858,"31":-0.025342123815590565,"32":0.00964278053115745,"33":-0.019905324255660647,"34":-0.07713455340573729,"35":-0.056125513367068995,"36":0.12342035572807841,"37":0.009607920588903737,"38":0.01120501328534267,"39":0.12513603161653175,"40":-0.15681360135437733,"41":-0.1224946366041125,"42":0.025225665915537994,"43":0.004640627349038075,"44":0.1452886625107744,"45":-0.26270290670361673,"46":-0.06998775345841049,"47":-0.021661874510122706,"48":-0.0762669984537468,"49":0.07486895362508753,"50":-0.06340579857824245,"51":-0.028448822364334877,"52":0.13812904606047866,"53":-0.12735424055181188,"54":0.010568571241966224,"55":0.10550184328780637,"56":-0.0281671950220249,"57":-0.11467573409765815,"58":-0.04463415646736563,"59":0.032867465153215744,"60":-0.06194856862681083,"61":-0.14123397429687226,"62":0.0024703063131121987,"63":-0.08455658645498505,"64":0.06142829641747628,"65":-0.05455543934904758,"66":0.04654170185103025,"67":-0.012255157950075158,"68":-0.011254336363611157,"69":-0.22322487281418923,"70":0.07510142851920873,"71":0.10720829038801669,"72":-0.08916924077316786,"73":-0.05805074709995127,"74":-0.054586330415877286,"75":-0.04307085066333944,"76":0.10995507155391991,"77":-0.02433505076057164,"78":0.1553277041355458,"79":0.11675385456570647,"80":-0.12094409675494575,"81":0.010426452987735941,"82":0.011849976107866011,"83":-0.13468081888233174,"84":0.05964495748208511,"85":-0.07034683161715305,"86":-0.02606869240751946,"87":-0.1088853275618081,"88":-0.08979756438652911,"89":0.08129593968542313,"90":-0.07894029302854472,"91":-0.0009013807547126459,"92":0.09259090518524123,"93":-0.04060169528232731,"94":-0.031752913716498014,"95":-0.16450159790612756,"96":-0.15041095756262846,"97":-0.0022601755127593746,"98":-0.0513834934259892,"99":-0.015285804673931728,"100":-0.07480061407276908,"101":-0.14137477044362323,"102":-0.15953661680282677,"103":0.004381488055906723,"104":-0.12147915538105948,"105":0.012422817621869081,"106":0.053542581864908755,"107":-0.05832898688602644,"108":-0.006252514363655323,"109":-0.07567529733978019,"110":-0.18630922439875044,"111":0.02582404018622997,"112":0.015592922095918746,"113":-0.0653873680110836,"114":-0.05639008542176373,"115":-0.06237370614457649,"116":0.030063284828730323,"117":-0.06073290244701378,"118":-0.08609342267237992,"119":0.33412266093279036,"120":-0.0411906131731271,"121":-0.038287996951092994,"122":-0.048126616059406074,"123":-0.04581650788851553,"124":0.06592111658303659,"125":-0.032105422776376055,"126":0.04623692695704124,"127":-0.15018011017114993,"128":0.07681367621400625,"129":0.07799760941389637,"130":-0.029266737081440636,"131":-0.03985543742160995,"132":0.034897311982292296,"133":-0.11252443606845662,"134":0.13826910615318352,"135":-0.06142607927098412,"136":0.06674584943219956,"137":0.06291550388117359,"138":-0.07113444868189947,"139":0.04648558065642306,"140":-0.030632478120246963,"141":-0.025076742546207963,"142":0.016046008977336698,"143":0.020012914591181413,"144":-0.06852094979267828,"145":-0.15684555645429996,"146":0.024905028821826953,"147":0.039118081941048204,"148":-0.02663356685165156,"149":-0.28666791853519114,"150":-0.08275082281648617,"151":0.06272107015802159,"152":0.026491633734051705,"153":0.017522482092604662,"154":-0.0035282641521817617,"155":0.05012707233548335,"156":-0.04308231218262296,"157":0.10656591323861116,"158":-0.01209783194958542,"159":0.14152252864761516,"160":0.008571773162693398,"161":0.1343988910784948,"162":0.15181231427578792,"163":-0.00009385799700204443,"164":0.019632509161171888,"165":-0.022232757167772507,"166":0.1397809654570477,"167":0.06646366422628812,"168":0.03517660883409109,"169":0.16231526871889135,"170":-0.03061565672365689,"171":-0.046792675466525754,"172":0.0845291848665243,"173":-0.03802512618534758,"174":0.2839440239027329,"175":-0.04062130207882921,"176":0.06522658126926138,"177":-0.04670310248862118,"178":-0.08891394835579414,"179":-0.0920776949574353,"180":-0.1291824441114105,"181":-0.05781943782657063,"182":0.09046859408586869,"183":-0.004065292881034863,"184":-0.02581996139145078,"185":-0.012999808755427387,"186":0.031121300337637253,"187":-0.08068297218618985,"188":-0.04934207060709823,"189":-0.17543898606975852,"190":-0.05855743371066927,"191":0.022013374099629522,"192":-0.027403069112285617,"193":-0.007196664186100996,"194":-0.028959941148664264,"195":-0.13459536400241512,"196":-0.05151509092091786,"197":0.07443356402931618,"198":0.03948353404799441,"199":-0.03941528421924741}},{"sx":5,"sy":5,"depth":8,"w":{"0":-0.07658064323945481,"1":-0.007310125526442781,"2":-0.19501762879753815,"3":-0.04478642716582217,"4":0.03198416585641881,"5":-0.09595232714720492,"6":-0.07595449742234514,"7":0.10572270873436213,"8":0.03815041499216465,"9":-0.3035238066549178,"10":-0.05960644566626442,"11":-0.047766954633645886,"12":-0.15547825064000995,"13":0.19705999586121795,"14":0.07031485140515811,"15":0.015603460553635385,"16":0.10869671631776588,"17":-0.021360351874985088,"18":-0.06576838423676933,"19":0.017863278558857644,"20":-0.1944653498405708,"21":0.1922203052479168,"22":-0.07338470784413927,"23":-0.0822298600327667,"24":-0.012578546364850948,"25":-0.07778625582865709,"26":0.0038962612267721655,"27":-0.06434469358252407,"28":-0.07233036064724288,"29":-0.015088588155734642,"30":-0.09537817931791509,"31":-0.07250804976093096,"32":-0.06225524067388739,"33":0.03970166855711226,"34":-0.11316485266718848,"35":-0.029136659135680205,"36":0.057823211135205915,"37":0.051683719088300786,"38":-0.2280587095605445,"39":0.06440066426848848,"40":-0.18506914503249378,"41":0.00857271186194358,"42":-0.09582723867666695,"43":0.06416441173752824,"44":0.050959084670366424,"45":-0.341683659174129,"46":-0.08471980290963181,"47":0.18921215973752678,"48":-0.0012550052440943357,"49":-0.17253662824655366,"50":-0.10679331533989679,"51":-0.07384345321741233,"52":-0.18829845221062289,"53":0.19832836978939078,"54":-0.14020473387901747,"55":0.010516934555245334,"56":0.097143547052037,"57":-0.1097207380123378,"58":-0.13081647699256058,"59":0.005914008604657857,"60":-0.00804818379762933,"61":0.11561424178427518,"62":-0.08847728754851789,"63":-0.1481352982862075,"64":0.08059757488860203,"65":-0.11247139148220778,"66":-0.10673094575256184,"67":0.02992168960019734,"68":0.05517654638598201,"69":-0.09614377833089384,"70":-0.1786773884867078,"71":-0.037086771404445794,"72":-0.08905271840700954,"73":-0.14176001554194215,"74":-0.20877700819193157,"75":-0.008476760683371394,"76":-0.2441290574991387,"77":0.0271627747358132,"78":-0.001167760116814198,"79":-0.06918639841593366,"80":-0.12355809163299326,"81":0.21360996673696034,"82":-0.06871686897383182,"83":0.0033569441438855686,"84":0.15457688827991414,"85":-0.17879716560882156,"86":-0.06784141944484971,"87":-0.044977178720435385,"88":0.11237282271328684,"89":-0.05649292279815477,"90":-0.06440229301621973,"91":-0.06338529926051349,"92":-0.14387670875654918,"93":0.46289998297105406,"94":0.025208646502408,"95":0.0766915105924878,"96":0.11464351961420796,"97":-0.039635307146574726,"98":-0.030989141492063728,"99":-0.08934014866054667,"100":-0.1485672869220069,"101":0.415670560561201,"102":0.03139017409069619,"103":-0.19607243503489508,"104":-0.0666776975684295,"105":-0.02961541906220963,"106":-0.11455214737730762,"107":-0.050375461202641074,"108":-0.14314295403601415,"109":0.005998376477757153,"110":-0.038288401698906856,"111":-0.0525762343938428,"112":-0.02723093246060896,"113":0.05709486159576971,"114":-0.045914758595688804,"115":-0.08103138111388485,"116":-0.06404484509823025,"117":-0.03056883725573482,"118":0.01991031642026244,"119":-0.06449120006335186,"120":-0.09605790349447303,"121":0.08868861077764395,"122":-0.0318005718729549,"123":-0.03762587270687144,"124":0.043304518943254974,"125":-0.010688567743408416,"126":-0.05472673906774264,"127":0.02359709357467952,"128":0.11118560397425661,"129":-0.13269843982418195,"130":-0.1699152124358015,"131":0.01748292518277143,"132":-0.07029653267791473,"133":0.2999880134050769,"134":-0.06556927127219718,"135":0.012623375558378561,"136":0.09113317007218971,"137":-0.039393223237774805,"138":-0.11624233418780354,"139":0.03974034997802859,"140":-0.10200130573088693,"141":0.12727523429244353,"142":-0.01892129487084691,"143":-0.06447664199887496,"144":0.028015558034916347,"145":-0.09336724487411661,"146":-0.07833736178371813,"147":0.017449533775511526,"148":-0.16563148834920285,"149":-0.0011943631787553624,"150":0.07028025642474872,"151":-0.0514231424936444,"152":-0.11070111335817205,"153":-0.01759438927286263,"154":-0.11769239822929058,"155":0.06091075720425029,"156":-0.03172416968433294,"157":-0.007688745574727921,"158":0.2112932361616325,"159":-0.16628813740100817,"160":-0.058450752482096316,"161":-0.028668818798028132,"162":0.16222690854632357,"163":-0.04583658873551942,"164":-0.0032829224488084728,"165":-0.0047197111394375844,"166":0.0006081606406677493,"167":0.09851296602413775,"168":0.2006303789769687,"169":-0.17812242082196672,"170":-0.02208504975290471,"171":-0.09896745815980583,"172":-0.11165290573354923,"173":0.1582759287815155,"174":0.09637325516523688,"175":-0.023523635127613223,"176":0.09093660081427198,"177":-0.024963893772213946,"178":0.0076946970527049475,"179":-0.08250057683430839,"180":-0.11743786905368983,"181":-0.05981811615558475,"182":-0.047418906406680096,"183":-0.052335501468273954,"184":-0.18143678311606193,"185":-0.10680950679266102,"186":-0.025394269556201155,"187":0.0625586259960084,"188":-0.001941926842199808,"189":-0.09281694677300374,"190":-0.05533770337268839,"191":-0.0948307497956477,"192":-0.03203577273254561,"193":-0.10630143862888806,"194":-0.09568726144891598,"195":0.016924111517827918,"196":0.03026645816555849,"197":0.07652748533185226,"198":0.05577519297424954,"199":-0.12640382605623182}},{"sx":5,"sy":5,"depth":8,"w":{"0":0.0482884577417673,"1":0.08086021864161229,"2":-0.016389055990844673,"3":0.013761797603460288,"4":-0.08266371479674062,"5":-0.0715801944711972,"6":-0.13332664869735664,"7":-0.07097390079815236,"8":-0.023331530645054215,"9":-0.11549242442137417,"10":0.007379309794181747,"11":-0.0648531873276563,"12":-0.11229416561228164,"13":0.04568565489670514,"14":-0.04602188773140662,"15":-0.06987934509941712,"16":-0.010079520409439238,"17":-0.05472578993162716,"18":-0.12978328653059218,"19":-0.05370874580314321,"20":-0.016994959642890745,"21":0.11684092333715078,"22":-0.047684870997630496,"23":-0.026191797496009497,"24":-0.0776892146696782,"25":-0.0722602945989996,"26":-0.11105160593953901,"27":-0.042866530261872815,"28":-0.11551475980404377,"29":0.1441725939350632,"30":-0.06970447984480944,"31":-0.09552992785937998,"32":0.036696406895840285,"33":-0.029010357498707517,"34":0.08705261933926305,"35":0.12421435444254332,"36":-0.014115462133978898,"37":0.2993534736482362,"38":-0.09780472412073647,"39":0.15053652133430998,"40":-0.15532958711408285,"41":-0.06375196479004863,"42":0.07005629924920549,"43":-0.15937470127596998,"44":-0.11872933957350161,"45":0.04117216782265292,"46":-0.10741085048214201,"47":-0.048640174926933254,"48":-0.16372145487370837,"49":-0.11183005187224498,"50":0.03604061615824985,"51":-0.017589040382636777,"52":-0.11905595723418018,"53":0.0301797896879252,"54":-0.020344456036142447,"55":-0.04781573883268554,"56":0.16590422885705303,"57":-0.05908421130444087,"58":0.05898912568676089,"59":0.004744143438016109,"60":-0.030830757801510712,"61":0.12381697069375268,"62":0.1050689328003379,"63":-0.015150770636404002,"64":-0.04634458909463598,"65":0.020029275392642234,"66":-0.004764603143195621,"67":-0.1463851310921938,"68":-0.04473929640097267,"69":-0.030791085975759035,"70":-0.02168352365204368,"71":-0.12967460575533485,"72":0.2579114789805669,"73":0.05742877676252243,"74":-0.0786223212912548,"75":0.08596824016604644,"76":-0.028203681025167574,"77":0.12241438499553949,"78":-0.03241188602648792,"79":0.03491770908572018,"80":-0.08048614178004115,"81":-0.09107787472469658,"82":-0.07650964385927879,"83":-0.14124959776859672,"84":-0.10292367421238598,"85":-0.05826487966523486,"86":-0.04275390196007916,"87":0.06406667769283517,"88":-0.06464308386638938,"89":-0.010440425830027342,"90":-0.017605565813455838,"91":-0.06875475961643797,"92":-0.05964439874355094,"93":-0.023643171147568164,"94":-0.011230125745071753,"95":-0.038633113933341824,"96":-0.005722298237884985,"97":-0.04439288437394652,"98":-0.07966782021121957,"99":0.02781204549977492,"100":-0.060976181523233274,"101":-0.011219258207933422,"102":-0.0093096678516663,"103":0.007778813845500915,"104":-0.09251699838206942,"105":-0.10457190822386589,"106":-0.08304934316498436,"107":-0.04236822122444124,"108":-0.046515010739797365,"109":-0.1297674206691781,"110":-0.00690489203257506,"111":-0.06817998388743697,"112":0.15741849852438694,"113":-0.1159616321171657,"114":-0.01360585643867691,"115":0.014073970131297131,"116":-0.03819370525149394,"117":0.1644009139644479,"118":0.08811478777156447,"119":-0.15056556464825818,"120":-0.21980826685800833,"121":-0.038078472683046975,"122":0.0070532968446559655,"123":0.0960421429348228,"124":0.006482567660823869,"125":0.0072085623733150125,"126":0.01926112290175605,"127":-0.10259346193278476,"128":-0.0002630767467976955,"129":-0.035664508518177804,"130":-0.106724999761729,"131":-0.04727380424402941,"132":0.03218751501618282,"133":-0.038010225803827444,"134":0.009816563291481974,"135":-0.09050880973748125,"136":-0.07033412939440169,"137":0.004653067130883747,"138":-0.0076624504539520456,"139":0.012101521348980291,"140":-0.016300682190088418,"141":0.012519768183045139,"142":0.09694769866531919,"143":-0.014774191598303014,"144":0.11440922772525847,"145":0.013229416145418678,"146":-0.0042478711720521905,"147":-0.17812836004307625,"148":-0.12363432491589252,"149":-0.104259145764648,"150":0.010860348088260939,"151":0.05115108768889467,"152":0.13510993597246254,"153":-0.0982733497334461,"154":-0.055821275827831085,"155":0.15360889475431494,"156":-0.04199387495985404,"157":0.04877136318239466,"158":0.0372913329843422,"159":0.06485828653399131,"160":-0.14340801114116025,"161":-0.00942359356204185,"162":0.006605838429046001,"163":0.019361253904328808,"164":-0.012728848175538723,"165":-0.09320751556136385,"166":0.0768593224084939,"167":0.08742084753631156,"168":-0.15200017772040356,"169":0.1684498650721166,"170":-0.13959618602478763,"171":0.05321852648988543,"172":0.04860953492493354,"173":-0.10985369925624416,"174":0.09034441886832334,"175":-0.15589384160227374,"176":0.003499504203199222,"177":0.0048244318844135135,"178":0.08212875651719004,"179":-0.14300831397045186,"180":0.029440344483967512,"181":-0.011422649714742605,"182":0.061985543144920746,"183":0.007173273839806122,"184":0.0006429194620765242,"185":-0.033593924297083,"186":0.014531309618774885,"187":-0.036673788800485434,"188":-0.015685459279719333,"189":0.048504412130005614,"190":0.14994605560050012,"191":-0.10287228893645456,"192":-0.05247032227617633,"193":-0.0693569037298774,"194":-0.019907992169121237,"195":0.09634942555827607,"196":-0.05094109940242176,"197":0.024246859664555222,"198":0.22680191380012066,"199":-0.017370662578193634}},{"sx":5,"sy":5,"depth":8,"w":{"0":0.14743263782193858,"1":-0.05212896767567066,"2":0.05570929050221321,"3":-0.10797940625054925,"4":-0.01768552579893324,"5":0.057167355082203934,"6":-0.10435647350436582,"7":0.02996086357069912,"8":0.046092394707830386,"9":-0.04649907829494334,"10":0.04070019302082426,"11":-0.042391927200723656,"12":-0.10469128578952917,"13":0.06926892418578301,"14":0.022530056186368885,"15":-0.0703814738586865,"16":-0.0386073555885613,"17":0.1350882067739709,"18":-0.003520628511457071,"19":-0.05150445034211221,"20":0.05235617299000218,"21":-0.13855272487170378,"22":0.03782599343117383,"23":0.00873243048431669,"24":-0.10982343656233216,"25":-0.08790095108557966,"26":-0.02437972755095934,"27":-0.07264583032586011,"28":0.023123600675053514,"29":-0.14085813479242712,"30":0.04940562683664705,"31":-0.1224046659092405,"32":-0.13195579116568182,"33":0.08514986481274256,"34":-0.05298760975288872,"35":-0.046660544313641014,"36":-0.15919017810601432,"37":-0.007919293786983451,"38":0.06340749511381223,"39":0.06195628353316925,"40":0.04062628022690515,"41":-0.05291745586481575,"42":0.07203615474895855,"43":0.07149336084509166,"44":-0.03180965645589003,"45":0.1515147926981466,"46":-0.10377705929941136,"47":-0.010365603911713043,"48":0.0016199521209548512,"49":0.009402154807469577,"50":0.06997615909201732,"51":-0.01645960472508402,"52":0.01907442460564793,"53":0.009986870517319574,"54":0.05277667670773295,"55":0.02804381061095463,"56":-0.1413698085674291,"57":-0.008384527029001082,"58":-0.042785758631859426,"59":-0.010091865051895318,"60":-0.000703734953132468,"61":-0.028702048236172076,"62":0.1957782839107169,"63":-0.053543153593117544,"64":0.06919930912030836,"65":-0.0019115023283988166,"66":-0.08614968707026016,"67":-0.03350922200417803,"68":-0.07539914043000218,"69":-0.078114641191652,"70":-0.07654080258871135,"71":0.029379398362464993,"72":0.07375042724688757,"73":0.010672924671433062,"74":-0.10672594393519624,"75":0.03797848900647172,"76":-0.06711033028293584,"77":-0.01511883025585123,"78":0.01706251403785829,"79":-0.03215637173999743,"80":0.0697825157546455,"81":-0.142925114919594,"82":0.16684548349367123,"83":-0.029339237953180712,"84":-0.049687438745458265,"85":-0.17881717019295518,"86":-0.010032606300739589,"87":-0.018133440616253126,"88":0.11755776427537357,"89":-0.03445285959768165,"90":-0.01994795040605463,"91":-0.009360230268086082,"92":-0.07434248892958366,"93":-0.1087568394016923,"94":0.051926861798649894,"95":0.10775881997411078,"96":-0.07371715894058273,"97":0.04788566074174984,"98":0.008740491104114885,"99":-0.04490179938564223,"100":0.055823688116287115,"101":0.03414370786074519,"102":0.011568965241068324,"103":0.10801928824918629,"104":-0.050832963544729236,"105":0.14048632748495282,"106":-0.034531151733664674,"107":0.01456486092150233,"108":-0.07717514106860829,"109":-0.1403327481531507,"110":0.0024636485405475214,"111":0.14861272603728565,"112":-0.1325841092756525,"113":0.006351362198754627,"114":-0.08316299017697293,"115":0.1932120264284103,"116":-0.09637690469165563,"117":-0.07653859402506202,"118":0.019646439349838327,"119":0.02399680394004161,"120":-0.06919544618345119,"121":-0.23461026450480457,"122":0.012720186097800281,"123":-0.03909947642594067,"124":-0.006033567214106463,"125":0.017234060295261942,"126":-0.05058885621115178,"127":-0.13312783905785985,"128":0.05717518152179396,"129":-0.05162940820290395,"130":0.0733091994162546,"131":0.06819946049182089,"132":-0.06592919306188154,"133":-0.02726958856791077,"134":-0.09347847088443641,"135":0.06878297944361167,"136":-0.04220278235748274,"137":0.19807776101944355,"138":0.028647006580195054,"139":-0.03413053869160917,"140":0.0740547335427754,"141":-0.0012388836830418406,"142":0.0004934355507403543,"143":0.0790069706395799,"144":-0.002949652216813095,"145":-0.009711000946607692,"146":0.0897444482554386,"147":0.07920289524877258,"148":-0.04972395908616886,"149":-0.2331436531667199,"150":0.04748522345758213,"151":0.14193864899141515,"152":-0.11387183524113491,"153":-0.10277479715748396,"154":-0.0930291287513184,"155":-0.06258667991589252,"156":-0.1790170888401881,"157":-0.06660323102880478,"158":-0.0009771791505019415,"159":-0.019354108563697455,"160":0.0056253199935150265,"161":0.05305646383297283,"162":0.0336752328861266,"163":-0.027719235583645203,"164":-0.10366579768864487,"165":0.04824123507986462,"166":0.050338888687108785,"167":-0.09867054954943844,"168":0.02083939871514561,"169":-0.06715992915574105,"170":-0.07859679459529413,"171":0.050198044136954396,"172":-0.14922785651726803,"173":-0.015205826846298374,"174":-0.14518944016847957,"175":-0.05071170033004179,"176":0.08309315019920537,"177":0.05212775011159042,"178":-0.05179243970070237,"179":-0.05227204409069077,"180":0.15876403358384292,"181":-0.02721067139042396,"182":-0.05974173751296492,"183":-0.0997930795545946,"184":0.054967339399870814,"185":-0.18814234474569186,"186":-0.06226204330584394,"187":0.027330821143702128,"188":0.031991425281295616,"189":-0.22092739098697908,"190":-0.2156493707541383,"191":0.05552652030107798,"192":-0.024826721199733802,"193":-0.07057997705324949,"194":-0.1556521409988326,"195":0.02521096839140449,"196":-0.059669681680739696,"197":-0.07089621269593623,"198":-0.017787096586411838,"199":0.01760269492128633}},{"sx":5,"sy":5,"depth":8,"w":{"0":-0.0025314241990907296,"1":0.0829808008873979,"2":-0.009302830102058072,"3":0.030088177657190032,"4":0.25113906844703054,"5":-0.1493931028380576,"6":0.16193822842703295,"7":0.11518338762038674,"8":-0.10633729360362625,"9":-0.0769666999841312,"10":0.09535157595329072,"11":0.027788539487375283,"12":0.08051251523639262,"13":-0.007010119988734352,"14":-0.10848664588953556,"15":-0.07578183704120164,"16":-0.09173289984957024,"17":0.0013315145802900628,"18":0.016419111901631513,"19":0.04789348883851244,"20":0.016563927198179867,"21":0.06535586091162181,"22":-0.08502500399500641,"23":0.03753566380623783,"24":0.016466487090518945,"25":0.11193163671423345,"26":-0.12424892388044262,"27":-0.13418137229701252,"28":-0.12352604350070184,"29":-0.06776326345007767,"30":0.019205955462262975,"31":-0.01926081759212297,"32":-0.06329889812737235,"33":-0.09393159915398551,"34":-0.1012400726781947,"35":0.01744530786581236,"36":0.02267764492041918,"37":0.09744870649334231,"38":-0.11941091280299959,"39":0.12463257360259106,"40":-0.16839982316988275,"41":0.028477380303685608,"42":-0.030399301010323225,"43":-0.05982793431778408,"44":0.11999054589168676,"45":-0.1758020641581577,"46":0.11762945940077635,"47":-0.031261282301190796,"48":-0.0797859735504191,"49":0.06581836289650868,"50":-0.05030822376401951,"51":-0.0048746889445338264,"52":0.12317437782520789,"53":0.10264099667159546,"54":0.0051176303484712716,"55":0.02496884346121165,"56":0.1070480967653256,"57":-0.09030531262041351,"58":0.03418013805402694,"59":-0.02283793150616525,"60":-0.038007746188341476,"61":0.208516604464819,"62":-0.08305222228371463,"63":0.08691112989681704,"64":0.11997513414750784,"65":0.01486968480392201,"66":-0.17720169863787794,"67":0.04668721099909991,"68":0.008851265960361853,"69":0.07755970307395699,"70":-0.12069080965077517,"71":-0.024841973341262185,"72":0.040467432181048806,"73":-0.044023877330080355,"74":-0.027485669786365744,"75":-0.07346524224516783,"76":-0.1279767299412132,"77":0.04957825679979428,"78":-0.0034481653980867307,"79":-0.13435589475167375,"80":0.053291836643138205,"81":0.14114320935776348,"82":0.13098964269866842,"83":0.07689174732881732,"84":0.11890761818140813,"85":-0.10077251695254476,"86":-0.017524156600994406,"87":0.16873059618915445,"88":-0.06041256650791471,"89":0.06523648281690349,"90":0.05347743403634599,"91":0.01147863295266518,"92":-0.0673418130838756,"93":-0.1595253875721609,"94":-0.1786529481536533,"95":0.21487911499761866,"96":0.07993488441911667,"97":0.028976724000008294,"98":-0.03899430051559462,"99":0.03265623965268297,"100":-0.052378994826851134,"101":0.13292824214265472,"102":-0.042618095231645496,"103":0.07115898305306904,"104":0.051528273714029,"105":-0.0337240632906473,"106":-0.06868714732748588,"107":-0.022055109747527484,"108":-0.012579225311966563,"109":0.06259806814437475,"110":-0.0023324633502083683,"111":-0.054092826042973066,"112":-0.17620840208590977,"113":-0.04736035791569977,"114":0.013919561730523961,"115":-0.049283013895778764,"116":-0.10924802611057428,"117":-0.08500798673640789,"118":-0.12427188434129784,"119":-0.1575157851695148,"120":0.025174066808350777,"121":0.006657703069333849,"122":0.07717245727708585,"123":0.16450563730948675,"124":-0.005817452326301568,"125":0.030402367219890418,"126":0.23667679069333564,"127":-0.012876756595775685,"128":0.06158046570664717,"129":-0.050458146185381796,"130":-0.10118873943910503,"131":0.0798797173307449,"132":0.01768259310479287,"133":-0.042160886637385514,"134":-0.06194170129606302,"135":0.010812793714995928,"136":0.1761496751764257,"137":0.19809120581968997,"138":0.18471817061187315,"139":0.05844041923781305,"140":-0.07239285934068528,"141":0.04012347675679161,"142":-0.0848971498872211,"143":0.01845901574608748,"144":-0.054023630530129374,"145":-0.09184650274317147,"146":0.01633376832600004,"147":-0.08379183128426372,"148":0.002009278260413942,"149":-0.15591913955536876,"150":-0.043120892548216556,"151":-0.07681088637598657,"152":-0.11989570344953529,"153":-0.005563253603913789,"154":-0.055543883750663,"155":-0.02948298721460994,"156":-0.042742878067873,"157":-0.16152183195407374,"158":-0.04483807795257768,"159":-0.20766427268803767,"160":0.14710807008964327,"161":0.129722413597852,"162":-0.13541026447252327,"163":-0.13614825033586897,"164":0.06502175921280437,"165":0.06596603765892517,"166":0.09592485029307181,"167":-0.04341516769963446,"168":0.12981954431235287,"169":0.05055324722862246,"170":0.021294917408459974,"171":-0.12747067496862108,"172":-0.05492589780133541,"173":0.13847855613447838,"174":-0.05296580309992484,"175":-0.037002157337839195,"176":-0.02737205393585679,"177":0.02167520055879818,"178":0.005976175842820059,"179":-0.09846583229468756,"180":-0.061147711570096505,"181":0.11282875277608942,"182":0.0656338564188018,"183":-0.1025883584880234,"184":-0.19325883179342584,"185":-0.025256753720655556,"186":-0.10438362109986764,"187":-0.07506575406086417,"188":-0.09214983529209744,"189":-0.12549414827074648,"190":0.027424487944667415,"191":-0.040920180897046306,"192":-0.1686090593812379,"193":-0.19724876251493503,"194":-0.06058682816474142,"195":-0.07684309039059034,"196":-0.1214377514864757,"197":0.05274964672744456,"198":0.06012521138268678,"199":-0.15716917273699285}},{"sx":5,"sy":5,"depth":8,"w":{"0":-0.16978975630084395,"1":-0.03156975442989985,"2":0.1396400390079626,"3":0.06521611542110477,"4":-0.07266340030865244,"5":0.048696472589071935,"6":0.00523918910478219,"7":-0.1817053110959661,"8":-0.06036671852701052,"9":0.006602044501680359,"10":0.0709256442780463,"11":0.039253768463495334,"12":0.047519003732072726,"13":-0.03627871055063363,"14":-0.054348741720521294,"15":0.005918837858435103,"16":0.04857081749042926,"17":0.047978513025502226,"18":-0.027828185119639436,"19":0.0958127917045611,"20":-0.01296156797136711,"21":-0.03609974751306127,"22":-0.11131880871117537,"23":-0.04303702763468655,"24":0.04036325383772367,"25":-0.0998144211241952,"26":-0.0631289521705763,"27":-0.08423215372122593,"28":0.08085389824480572,"29":-0.08181211638773138,"30":0.05594619599234695,"31":-0.15966301791708437,"32":-0.05964385341711845,"33":0.09968530031092981,"34":0.1141981242745501,"35":0.024437501883718092,"36":0.07470369263517097,"37":-0.021013467518458537,"38":0.05100702995059705,"39":0.01597469722870392,"40":-0.05831928322813142,"41":-0.005225966488972612,"42":0.05660137692462566,"43":0.019325692132254026,"44":-0.0970938509331768,"45":-0.06589904928486003,"46":-0.021282248733706672,"47":-0.13490144309437432,"48":-0.028765949510182545,"49":-0.10095502847563113,"50":-0.07331544410948003,"51":0.01567797621042245,"52":0.04494735547856315,"53":-0.06024138521540796,"54":-0.08274028525947884,"55":-0.14830583467255412,"56":-0.13231666003709036,"57":0.0019451583408624208,"58":0.07572618262526161,"59":0.003646292590962218,"60":0.0417338523235886,"61":-0.10158653181771077,"62":0.015464746928924647,"63":-0.06283810633385485,"64":0.058433378934651864,"65":0.07838595759004961,"66":0.0628685055793605,"67":-0.04896562000472316,"68":-0.0913445973347072,"69":-0.02609322913282201,"70":-0.034776140092874754,"71":0.038807058615810706,"72":-0.005925120668307327,"73":-0.005257082569261613,"74":0.09229400512039751,"75":-0.03240848285611464,"76":0.09593154153949351,"77":-0.0014283977666738285,"78":-0.07804293128256815,"79":-0.018461657043642072,"80":0.0130407776406221,"81":0.021011170279484407,"82":-0.0011623852916837994,"83":0.032213132500995084,"84":-0.09170363900428391,"85":0.06478852122062892,"86":-0.023790714902613568,"87":-0.033727387002530314,"88":-0.022403703959499106,"89":0.048779278779601754,"90":0.10957872791367801,"91":-0.07077186848665012,"92":0.0041830675585131155,"93":0.011997425579273548,"94":-0.030006226729101526,"95":-0.0859710730010828,"96":0.0028667398603107247,"97":0.03595633014962324,"98":0.03371109417862623,"99":0.12659600826630127,"100":0.035360582135822466,"101":0.07488676643198834,"102":-0.06879206787396118,"103":-0.12080941341667922,"104":-0.05291067889764302,"105":0.07827096742813454,"106":0.1197079991041016,"107":0.033661568749080294,"108":0.0014473788399696303,"109":-0.010418575410748313,"110":0.0013992627789510244,"111":0.043538724285105336,"112":-0.00011297289603574303,"113":0.24419947214074295,"114":-0.02679117886209048,"115":0.043971694506613694,"116":0.021978986742541187,"117":-0.03347084253850922,"118":-0.05335766921906876,"119":-0.021893785202019227,"120":-0.007206563235174417,"121":0.025679520179244887,"122":0.0602900143412874,"123":-0.02846009396083437,"124":-0.0968500885173981,"125":0.09652498149979141,"126":0.21665717623802863,"127":0.06413494876509872,"128":0.037179363383565936,"129":0.05623256167284774,"130":-0.04090359157412083,"131":-0.03999737541697934,"132":-0.011173235684163422,"133":-0.022783570341625786,"134":0.21031775089075347,"135":0.1879678235305285,"136":-0.07428067966646244,"137":-0.024518904514698507,"138":0.054534190134405754,"139":-0.030072051623576276,"140":-0.09601054366992343,"141":0.03760319681931,"142":0.21752948887191137,"143":-0.13496390616782844,"144":0.04948182965841209,"145":-0.007932903576999998,"146":0.22814963379823303,"147":0.020791366540418157,"148":-0.02487262184612191,"149":-0.025958071229798145,"150":0.09699884849952849,"151":-0.10230952122932727,"152":-0.05444969792661107,"153":0.07468433028788017,"154":0.10086877533890941,"155":-0.019057309487412317,"156":0.09654431296147262,"157":-0.11146211464712968,"158":-0.0296274128159787,"159":-0.0939215060449544,"160":0.055440400823895106,"161":-0.06888240707094047,"162":-0.04332829506546144,"163":0.00856513806125749,"164":0.04061747837745992,"165":-0.011632760852409737,"166":-0.02650913467137725,"167":-0.026712508768954972,"168":-0.17654289504231774,"169":-0.08407616812962679,"170":0.01178516565640037,"171":-0.1088099913609254,"172":0.02900730680964684,"173":-0.12394414088972011,"174":-0.17187847636788475,"175":0.1060188144251373,"176":-0.032142297528866735,"177":-0.0070645293508851984,"178":0.06773167807740926,"179":0.03710129840999124,"180":-0.0045928595380137684,"181":-0.026836269983056382,"182":0.07653442288800592,"183":0.00398730089264601,"184":-0.03137835087285203,"185":-0.0029126420329915505,"186":-0.07735559059939182,"187":0.0326801453887511,"188":0.04662077581903496,"189":0.0019644341076699417,"190":0.08968660383553226,"191":-0.08872648530991444,"192":-0.11208967542522452,"193":-0.019622162421984352,"194":-0.014964791750601758,"195":-0.029606945622803218,"196":0.019696581530634614,"197":-0.06910042716347697,"198":0.1719031044020338,"199":-0.11545136855894808}},{"sx":5,"sy":5,"depth":8,"w":{"0":-0.11073049936273686,"1":-0.022033391336465535,"2":-0.016779089477235793,"3":0.0956314791315597,"4":0.09351505562883501,"5":-0.10650636862768885,"6":-0.06859605350555315,"7":0.07203697581721738,"8":-0.043874639224735106,"9":-0.07359621452754553,"10":-0.053809329226432404,"11":-0.055516909756140265,"12":0.11232597013210678,"13":-0.011631997595879053,"14":-0.009902717992152853,"15":-0.09288098519899098,"16":0.026654984562034842,"17":0.06909498834663683,"18":0.09459215872881264,"19":-0.12342362543885788,"20":0.05685190605451091,"21":0.16048753035133417,"22":0.01354108136506409,"23":-0.11423621177177039,"24":-0.045544504041379975,"25":0.09390747886832924,"26":-0.050756393754083404,"27":0.16734463172863334,"28":0.01690242882443882,"29":-0.15985996619462495,"30":-0.17088139674007516,"31":0.04991433462376807,"32":-0.12155125796460267,"33":-0.062647231875799,"34":-0.11812047928632464,"35":0.049618783729016715,"36":0.024876143724784732,"37":-0.1883551953882261,"38":-0.07813029192755518,"39":-0.0012561257361480252,"40":0.033975943522205655,"41":0.09037264946783273,"42":0.15096103708292324,"43":0.0848701566907207,"44":0.042848974075261115,"45":0.16628997190678138,"46":0.05370421937493626,"47":-0.04440591413078981,"48":0.025869769773198995,"49":0.026250537241192168,"50":0.08133079839276716,"51":0.019389908368412635,"52":0.07998217473579688,"53":-0.013962559171918276,"54":0.0357984301839931,"55":-0.04819073201553816,"56":0.05593556507828384,"57":0.09510239653845667,"58":0.11843920855461793,"59":0.06161818564494997,"60":0.004211447482375518,"61":-0.0030391702466210113,"62":-0.07061430767232987,"63":-0.013059009675645819,"64":-0.034214091920080875,"65":0.0774440266214773,"66":-0.05898774609363066,"67":0.01804581631754817,"68":0.17794589208950332,"69":-0.12156112531895905,"70":0.02985241469305269,"71":0.001137045697139126,"72":-0.12547340969144027,"73":0.013491102753089176,"74":-0.06029797553844717,"75":-0.09236657373075154,"76":-0.02090893492467917,"77":-0.16815252835610559,"78":-0.05407752036970583,"79":0.11632045822033846,"80":0.07766777772367939,"81":-0.06084534509118697,"82":-0.016801091325027714,"83":0.11633985313255234,"84":0.07152580798272881,"85":0.22563701468238015,"86":0.002635656520317286,"87":0.10624942160329658,"88":0.05866224892424109,"89":0.09282403693643537,"90":-0.0032414822495993286,"91":0.033150640017233196,"92":0.062485365004843696,"93":0.02602578459011846,"94":-0.02765536593514377,"95":-0.015014637220698866,"96":-0.03851239621635728,"97":-0.0864403911178652,"98":0.12172927667882918,"99":0.016802246033053466,"100":-0.03319922046424993,"101":0.07749094704127564,"102":-0.142190962136952,"103":-0.005847387877557263,"104":-0.037881667788135974,"105":0.09151958248022003,"106":-0.06253576682775966,"107":-0.03351498867234687,"108":0.12103874472397366,"109":0.016845610705872618,"110":-0.16221174155142914,"111":-0.02879817194104871,"112":-0.10123012883276292,"113":-0.02568647093540965,"114":0.011080570985735111,"115":-0.0867993560664424,"116":0.13268341848704165,"117":-0.035370878840994865,"118":-0.1405873497914631,"119":-0.06640264436151794,"120":0.02374585822365082,"121":0.08761498036956915,"122":0.06491226038915043,"123":0.017696225173655083,"124":0.15189308315852923,"125":0.03185868923722074,"126":0.01438906568366849,"127":0.006577955680562746,"128":-0.0422663663200091,"129":-0.018648778038715185,"130":0.013571639563133517,"131":0.04233910890828117,"132":-0.1795508835698253,"133":-0.08419578689182712,"134":0.09080662347412742,"135":-0.12264123101420696,"136":-0.02469547710680423,"137":-0.060042416533854295,"138":0.10010566213154756,"139":0.05553790505223916,"140":0.032838093293661816,"141":-0.12066309319794782,"142":-0.10759201307741552,"143":-0.08791698338569826,"144":-0.11208621843520364,"145":0.16372401708241058,"146":-0.04660253057405977,"147":-0.10156459431513834,"148":0.08514470254048682,"149":0.04430645920156403,"150":-0.15078056477781815,"151":-0.12332353877976321,"152":-0.11815778662663765,"153":0.03755482798801984,"154":-0.007558295429861411,"155":-0.09755641734013717,"156":0.09962157491583909,"157":-0.06975007521069855,"158":-0.08960923762411224,"159":0.02958102535780655,"160":-0.12121895542079567,"161":0.08695445873165471,"162":0.1462758544597951,"163":0.06377706111918051,"164":-0.05734846940123456,"165":-0.01816004056306195,"166":-0.042323541429048636,"167":-0.07407283942442681,"168":0.0833109821937207,"169":0.0399490104450575,"170":-0.006687984874098713,"171":-0.04462838426255544,"172":-0.014264791176156555,"173":-0.1126757205606874,"174":-0.061848360784814094,"175":-0.15658042477520553,"176":0.08131862943936746,"177":0.07254521143954287,"178":-0.014649689353494259,"179":0.054062479701234296,"180":0.06662462490997328,"181":-0.04985689068803602,"182":-0.1075044530102217,"183":-0.17278439414287783,"184":-0.028796916703963078,"185":0.09809341684940683,"186":0.1354511650962713,"187":0.05605517333370305,"188":0.0912471416341695,"189":-0.08568391814305783,"190":-0.018574996865469838,"191":-0.03438273451573652,"192":-0.057134498550646874,"193":0.02466680633410556,"194":0.004698135749757186,"195":-0.027946311283319692,"196":0.15012370245607007,"197":-0.013572186590811735,"198":0.0035315448919577123,"199":-0.07230488583689917}},{"sx":5,"sy":5,"depth":8,"w":{"0":-0.08983038445666572,"1":-0.18899080995149226,"2":0.1072121892978005,"3":-0.022313809513514665,"4":0.028998211902469453,"5":-0.07930791548871169,"6":0.08194087956958586,"7":-0.11698938155107279,"8":-0.02343565249328815,"9":-0.04808824215737893,"10":0.01185752502339942,"11":0.0719745897557222,"12":0.19407775419977846,"13":-0.11728015643937359,"14":0.18549457384196955,"15":-0.03435340626238263,"16":0.06180192367536426,"17":0.07761438955580406,"18":0.10760155802596134,"19":0.08902635171685043,"20":-0.035776580330938494,"21":0.07540004836958668,"22":-0.06824604344331107,"23":-0.012521196800980433,"24":-0.1009379401546999,"25":0.1049122586696947,"26":0.1106775346084437,"27":0.12888874523489185,"28":0.22921624057153056,"29":0.09884989271659168,"30":-0.02910935207629198,"31":-0.014229999784866929,"32":0.04054365185823691,"33":0.11674415411792999,"34":0.1364329146063779,"35":0.03015330760809377,"36":0.17463495263727433,"37":0.018686409381408982,"38":0.04486783942356922,"39":-0.18383601377030215,"40":-0.09573236391266268,"41":0.046184363318631405,"42":-0.05737845813577542,"43":0.1377058548938091,"44":-0.09191076372003784,"45":-0.2051356236036185,"46":-0.059654053614608335,"47":0.05737564496327365,"48":-0.13838443786473545,"49":0.10168071061432239,"50":0.16303421567840454,"51":0.037648187429868016,"52":0.23967604525094713,"53":-0.11158278326052447,"54":-0.0011459737596014588,"55":-0.034553448234859827,"56":-0.05369811040570294,"57":0.1271844956992234,"58":0.012093465651611655,"59":-0.10492975846278527,"60":0.03866749623897648,"61":0.2630015410201702,"62":-0.0387990666378301,"63":-0.022481024982590768,"64":0.08009073973173532,"65":0.014415013412233859,"66":0.030727999049491757,"67":-0.04013675691765189,"68":0.12456415475276612,"69":0.04736977698045113,"70":-0.07768653774845263,"71":-0.006389312473975275,"72":-0.0057648994694175296,"73":0.1174605963959156,"74":0.09569660061430037,"75":0.012062624240296013,"76":0.09393574666747918,"77":-0.13074777397762707,"78":-0.0660117411790056,"79":-0.21319924573550408,"80":-0.10396901960892439,"81":0.08212197336996413,"82":-0.02592075743454187,"83":0.04201972870303555,"84":-0.013197453103179898,"85":-0.03215396251112833,"86":-0.0696251692122895,"87":-0.16115790021961565,"88":0.030499204782590723,"89":0.14381419558302383,"90":0.21911482973768126,"91":0.05494930508809375,"92":0.12974500029673927,"93":0.05370346213316507,"94":0.028032122553611736,"95":-0.11328365085945946,"96":-0.08341755364560036,"97":0.12028613130815721,"98":0.19242738752093494,"99":0.10696579352319732,"100":-0.10107632752832316,"101":-0.006024297209505921,"102":-0.08830397550802206,"103":-0.3369052134651745,"104":0.003470087550102886,"105":0.16543625391158384,"106":0.03125689059316941,"107":0.049423855957821554,"108":0.09331162512150061,"109":0.09669349013121456,"110":-0.011236341723215798,"111":-0.12641586295372217,"112":0.08891521590444038,"113":0.1988867466196646,"114":0.18333955192037188,"115":-0.06439605083511157,"116":0.08891926014164743,"117":0.1835262377754982,"118":0.05492269122814959,"119":-0.1473887867996865,"120":0.05702459174705577,"121":0.15173702859677965,"122":0.03466557580475987,"123":0.05734994545819911,"124":0.14002183730393436,"125":-0.09719240523067293,"126":0.04381695916492102,"127":-0.018317089119463253,"128":-0.06038392039398014,"129":0.17697525067455117,"130":0.07620132756976844,"131":-0.015518422241092107,"132":0.0982264025385863,"133":0.03230755399051405,"134":0.06145087490272403,"135":0.04905518510126555,"136":-0.030692518143529905,"137":0.1227732808609531,"138":0.06434848912047729,"139":0.07893775836650489,"140":0.12645435677581102,"141":0.0429844177290016,"142":0.08132360726057651,"143":0.022509106327752937,"144":-0.07475584280701747,"145":0.15309049849478373,"146":-0.017788355745273356,"147":0.0974720486903981,"148":0.14311757627875066,"149":0.07698583201653654,"150":0.05386330758063165,"151":-0.07049804088789587,"152":-0.054080475754777924,"153":0.02353282515283111,"154":-0.013538281134296878,"155":0.03783733413903868,"156":0.16467522276780658,"157":0.06191458131251923,"158":0.08827104024402298,"159":-0.19897042369013315,"160":-0.05287792990852495,"161":-0.059151012226474314,"162":0.033877173104209686,"163":0.08601257142232376,"164":-0.007837092810833831,"165":-0.09814659924438555,"166":-0.10036181293973427,"167":-0.09701315948937156,"168":-0.029120018088347917,"169":0.06941799694636133,"170":0.09860414449087543,"171":0.16519325179708777,"172":0.09436921182225982,"173":-0.031742010744790036,"174":0.04095321315553002,"175":-0.10934488417901846,"176":0.05961787519534854,"177":0.12125342313982232,"178":0.046170074392599854,"179":0.17709964552103016,"180":0.11967724046124661,"181":0.05551214142193046,"182":0.0987253040293681,"183":-0.11221692988304384,"184":-0.13571934811176592,"185":0.12235420939043735,"186":0.14737159276533227,"187":-0.03543694654142302,"188":0.23454727717294735,"189":-0.07372674093465588,"190":0.019948381342590388,"191":-0.02315971959457507,"192":-0.004783749984475955,"193":0.19539938046598024,"194":0.030843553071236922,"195":0.028915238258844938,"196":0.09903896404638153,"197":0.045107414472654365,"198":0.1356331317825768,"199":-0.09331779718979882}},{"sx":5,"sy":5,"depth":8,"w":{"0":0.04130878056473262,"1":-0.06933735850529367,"2":0.008292452911698093,"3":-0.0899946815762742,"4":0.04176521305628203,"5":-0.01753833691141673,"6":0.060259367594499215,"7":0.16594901334871592,"8":-0.06255031326376255,"9":0.10829913372027958,"10":0.1402876658276408,"11":-0.01253258632488263,"12":0.055068448972259605,"13":-0.05826045302140505,"14":0.03444146568082021,"15":0.04773087233187783,"16":0.11159386475763275,"17":-0.035817429557669526,"18":-0.05677699006382998,"19":-0.04444070465067394,"20":0.0036698678268759126,"21":-0.09644629749939106,"22":0.008344167599094511,"23":0.049784802189983074,"24":0.04726399136239633,"25":-0.02779972897359328,"26":0.011249116169855269,"27":-0.13251904632157602,"28":-0.0648061993159031,"29":-0.044785251787849034,"30":-0.1609289681887301,"31":0.13629944221576532,"32":0.04404321407862207,"33":-0.01980902134816731,"34":0.0038987314764531173,"35":-0.05509102274033214,"36":0.008319119189907331,"37":0.02170528311860422,"38":-0.09036795015897296,"39":0.1508836295436633,"40":0.039449189081925636,"41":0.08388424489131704,"42":0.04709765840840716,"43":0.13509994840238557,"44":0.02106396376521577,"45":0.0055074379280606375,"46":0.06143201564216017,"47":0.20260597467695152,"48":-0.0009601916155067909,"49":0.006894335985494391,"50":0.08472888672377514,"51":-0.018523257524929622,"52":-0.030959143506296284,"53":-0.1513527221510582,"54":0.030753793947986007,"55":0.035871196684671654,"56":-0.01890031755791765,"57":-0.07443392740717535,"58":0.01687018760326062,"59":0.05103602180527253,"60":-0.15120048398824013,"61":-0.020347298069151816,"62":-0.06718956978369138,"63":0.027701166504661732,"64":-0.016932361249789925,"65":-0.010561211472003965,"66":-0.05694274838655727,"67":0.12637476696545694,"68":-0.050345357140507696,"69":-0.015553315430086624,"70":-0.06818637735660331,"71":-0.09563224790465608,"72":0.061142029053531145,"73":0.09086469803192451,"74":-0.062149162096369726,"75":-0.08168864755889453,"76":0.026136047679149975,"77":0.06727022472787189,"78":-0.0961048583095141,"79":0.02474741717959663,"80":-0.07025583384485422,"81":-0.02691280316149312,"82":0.09936085562369318,"83":-0.014365987602953977,"84":0.014959992790557618,"85":-0.03554678919839824,"86":-0.005991856127094991,"87":-0.05315255289887077,"88":-0.0413270273440092,"89":0.04982336665017943,"90":0.0027432082883948484,"91":-0.06870710491429963,"92":0.0047244442671187555,"93":-0.08215750810674745,"94":-0.04789474570200284,"95":-0.05877796731701625,"96":0.050555542781381406,"97":-0.07554347069107084,"98":-0.030500671167928095,"99":-0.05224193009112508,"100":0.0022600137063109494,"101":0.06686485062708056,"102":-0.24539319041515814,"103":0.007139569160803619,"104":0.01592784973191896,"105":-0.11859357664959694,"106":-0.007141733555464592,"107":0.04659906103398879,"108":-0.12736025190619968,"109":-0.03557131375223725,"110":-0.13811822043214625,"111":0.03844767227953476,"112":-0.06520921321791746,"113":-0.13624585069031744,"114":0.02364010213938937,"115":0.024499348140612016,"116":-0.07218948507012671,"117":-0.04045304018790108,"118":-0.2466677645583742,"119":-0.040551137644096485,"120":0.03353851689850638,"121":-0.04935849865372985,"122":0.11791909545808409,"123":0.015189012575209654,"124":-0.11614703501907397,"125":0.022754423719073803,"126":-0.018728161500082233,"127":0.015072896696500276,"128":0.03882873498507927,"129":0.06543684036697588,"130":0.01856498160605059,"131":0.057735478893977885,"132":0.03492096396273725,"133":0.08389376745896353,"134":-0.05149215613436786,"135":0.03052859356722587,"136":0.044527079376317585,"137":-0.13219566944277017,"138":-0.04796581020386777,"139":-0.18066062838857216,"140":0.012616587623193802,"141":0.013332038543974481,"142":-0.20495514823059227,"143":-0.015219324760078666,"144":-0.04467364482150387,"145":-0.03728195165356641,"146":0.22305696626665777,"147":-0.012700165493259478,"148":0.022811453104570965,"149":0.0004688944008275351,"150":-0.036273850608192014,"151":-0.0658325304553013,"152":-0.06983617467291198,"153":0.009491887913675959,"154":-0.11340286145788182,"155":-0.016844447535001663,"156":-0.11236629258869815,"157":-0.07170524713173049,"158":-0.009655879658167334,"159":0.014708470307754781,"160":-0.0745047381048173,"161":-0.010142016806993965,"162":0.07269585489334421,"163":-0.004463591868814162,"164":-0.11488157391026296,"165":0.007196015101272529,"166":0.030905394807307487,"167":-0.09298462502684914,"168":-0.0194666595400314,"169":0.11656221107799675,"170":-0.027466511928892882,"171":-0.04503551069272638,"172":-0.03420708779337108,"173":0.10349635466658028,"174":0.18124094074646113,"175":-0.01603601826899119,"176":0.11741201653621301,"177":-0.09868182718746239,"178":-0.0348315588736514,"179":0.0366008084600488,"180":0.049346695802481265,"181":0.18987929088951228,"182":0.0888782104596682,"183":-0.1417795978876995,"184":0.013610247594646727,"185":-0.09457164544515753,"186":-0.08303544248071858,"187":0.020563753180856983,"188":0.05737444523043009,"189":-0.051975529857494984,"190":-0.17778472538283102,"191":-0.12716478522272484,"192":-0.11646482905846856,"193":0.08386580985004931,"194":-0.04249271337988966,"195":-0.13415825607580728,"196":0.029851474284482434,"197":-0.21244397464520762,"198":-0.17695771680350114,"199":0.00911458664946608}}],"biases":{"sx":1,"sy":1,"depth":16,"w":{"0":0.09733850365086509,"1":0.14397620859009644,"2":0.12152255547169673,"3":0.11777834735705855,"4":0.15291275367355445,"5":0.19057267497420569,"6":0.10568622507045403,"7":0.0757851996304894,"8":0.11483052062924083,"9":0.12238289063878388,"10":0.06280724252953969,"11":0.07672159483931722,"12":0.05270393533805446,"13":0.033164223179676516,"14":0.0769813891729908,"15":0.053687976643876936}}},{"out_depth":16,"out_sx":32,"out_sy":32,"layer_type":"relu"},{"sx":3,"sy":3,"stride":3,"in_depth":16,"out_depth":16,"out_sx":10,"out_sy":10,"layer_type":"pool","pad":0},{"out_depth":2,"out_sx":1,"out_sy":1,"layer_type":"fc","num_inputs":1600,"l1_decay_mul":0,"l2_decay_mul":1,"filters":[{"sx":1,"sy":1,"depth":1600,"w":{"0":0.002071845659957787,"1":0.03905019555417587,"2":0.03252400050143504,"3":0.08555746158986692,"4":-0.1974093344961195,"5":-0.0988283118889798,"6":-0.06317322240675298,"7":0.023499950332796914,"8":-0.09359303193441673,"9":-0.04277469053280567,"10":-0.06784811213623537,"11":-0.09191564101378111,"12":0.07023436012916014,"13":-0.03307732181685524,"14":-0.06068648615847129,"15":0.018407148014872816,"16":-0.03673077643334656,"17":-0.04449438352550535,"18":-0.20268840809166733,"19":-0.03036030631209147,"20":0.05138038878787351,"21":0.011578007640304637,"22":-0.03398956872838402,"23":0.025992922487243192,"24":-0.15416082720494068,"25":0.037918655570184485,"26":-0.05661248330734499,"27":-0.04936459299391522,"28":-0.00514636867006628,"29":-0.10508839586913625,"30":0.12084705877846827,"31":-0.015900441459304623,"32":0.05650130528873086,"33":0.11934741908207308,"34":0.07261556169561525,"35":0.018298051900393394,"36":0.013733273946688334,"37":-0.06575736879496573,"38":0.0318804515925382,"39":0.04308338607904834,"40":0.04822771655689569,"41":-0.0003885033087561345,"42":0.02375588861171887,"43":0.06208015352821821,"44":0.13031518877021236,"45":0.04431587209696449,"46":0.10659344666628125,"47":-0.013051430383744487,"48":0.08816805756040304,"49":0.13736314246770429,"50":0.13854923028882934,"51":0.06465446259517162,"52":-0.07895804491133197,"53":0.04747182802146505,"54":0.05539125593786686,"55":0.16392401355793565,"56":-0.10082080234448706,"57":0.02114671824798627,"58":0.07021106558629757,"59":-0.0875170684803112,"60":-0.059150081879273377,"61":0.09465355834306606,"62":-0.03729115576660243,"63":-0.06003739722343299,"64":0.04136151440028901,"65":-0.09004409534211748,"66":-0.1760617758274891,"67":-0.15182096988063318,"68":0.0362908889785295,"69":0.148615918490184,"70":0.0011374340757509126,"71":0.12380400956316197,"72":-0.1412709766330251,"73":0.013809320687587341,"74":0.04776529521222761,"75":-0.061022072884217474,"76":-0.0868584957772534,"77":-0.05402657689863766,"78":-0.030489953267035134,"79":-0.01799316947119674,"80":-0.011777595590171575,"81":-0.09489041573683558,"82":0.039004544033604975,"83":-0.024957542074656183,"84":0.028787957286684436,"85":-0.0027777992173977977,"86":0.006704686761380222,"87":-0.06853611043957347,"88":-0.0638949661113741,"89":-0.009628342997566194,"90":0.10141003057458374,"91":0.07917673780391672,"92":-0.05248201026919522,"93":-0.010604480217874685,"94":-0.015678172690209338,"95":0.04876317347281808,"96":-0.026369184514139513,"97":0.0004173521286461356,"98":0.017558912002683533,"99":-0.011263267261200211,"100":0.07893581953356926,"101":-0.04170466211324865,"102":0.07145181549697008,"103":-0.08285615878949304,"104":-0.024226219002096722,"105":0.0415613156531755,"106":-0.010836474755397214,"107":0.009749075223372457,"108":0.12650640604335933,"109":-0.04986914833643574,"110":0.061359865202130055,"111":-0.007212441964716922,"112":-0.027049337460855156,"113":0.08979480317932884,"114":0.10616291126904025,"115":-0.0008816238801828075,"116":0.037356295990792585,"117":-0.1578766511178514,"118":-0.0320328040582775,"119":0.0014339977614748825,"120":0.029091789075767836,"121":0.010557473112368704,"122":-0.048487444126535786,"123":0.03679697257426879,"124":0.08688763423437337,"125":0.034022536985178556,"126":0.06027772767161039,"127":0.04731692909801205,"128":0.021605094911094937,"129":0.07496485104585537,"130":0.10554348858245255,"131":0.012170086888368802,"132":-0.04235771024071548,"133":0.054823590455992804,"134":0.022564195768981072,"135":-0.018462356740009265,"136":0.003751740334480156,"137":-0.03239324396247686,"138":-0.050109941616575275,"139":0.002624403318920666,"140":-0.060569122153499654,"141":0.006378325907681782,"142":-0.007961092344302414,"143":0.05308611048890345,"144":0.06347085665579162,"145":0.0326946945166027,"146":-0.005066639466826557,"147":0.0314282632394775,"148":0.004914226461224434,"149":0.012888755145702339,"150":-0.07887888400159612,"151":-0.008493616913631905,"152":0.00833372013226008,"153":-0.0750874715097902,"154":-0.03367909080721633,"155":0.0028094261912952603,"156":-0.06720452630880737,"157":0.005353226094606393,"158":-0.09076980485393332,"159":0.01690738529794364,"160":-0.08231062179741416,"161":0.06380261116310369,"162":0.02165701058180288,"163":-0.03600338318628192,"164":-0.05460880850309175,"165":-0.04015009665142596,"166":-0.07384073091062385,"167":-0.045239046446286325,"168":-0.0947569643549612,"169":0.018251570559448534,"170":0.02846279457381086,"171":-0.11745851949228987,"172":-0.08650193076548193,"173":-0.09612974713486666,"174":-0.06419797963076082,"175":-0.06452767920278371,"176":0.012287697474852206,"177":-0.10067190756152695,"178":0.002930298341361837,"179":-0.027663547617663407,"180":0.05391387520122875,"181":-0.04306902331790569,"182":-0.08284428165522456,"183":-0.10580734847678536,"184":0.02660219893353391,"185":0.06406251194575716,"186":-0.08835333086939301,"187":-0.036029468666076224,"188":0.002553190003709678,"189":0.010320259830799866,"190":0.04649888149713095,"191":-0.012062951591946067,"192":0.015938545982668945,"193":0.032577286660763,"194":0.018616845614758296,"195":0.0007187436067900162,"196":-0.04129345375508242,"197":-0.011514091017154584,"198":-0.05209982691469821,"199":0.06337992020522812,"200":0.016673735164986908,"201":-0.025194735663286786,"202":0.022790211329940843,"203":0.034362078527149835,"204":0.01425699240229793,"205":0.050250706903263054,"206":0.046611462599784895,"207":0.020952371340833133,"208":-0.040629432073573106,"209":-0.09949164803882832,"210":-0.04807502874072922,"211":-0.03985387301104411,"212":-0.033631279303428685,"213":0.10384770840381001,"214":0.01836708029496923,"215":0.12732419082288157,"216":-0.14639474663159238,"217":-0.012307861507197222,"218":0.007165362087281257,"219":-0.1208959285306395,"220":0.007006509843287021,"221":-0.030733703100767864,"222":0.05759485760347866,"223":-0.057371540400451324,"224":-0.034762809549717055,"225":-0.135717971069016,"226":-0.005363545397807183,"227":-0.09042038492314906,"228":-0.012686510848467284,"229":-0.011831045451312026,"230":-0.0634115589152321,"231":0.030150772159900995,"232":0.09696168736947915,"233":-0.07815191497235285,"234":0.02196945955735939,"235":0.051932427746529314,"236":-0.001648958575166078,"237":-0.04459956938215522,"238":-0.03386335588937644,"239":0.0898251741891003,"240":0.051339275110632125,"241":0.09967515012542778,"242":0.12119869565972302,"243":0.07386542675655541,"244":-0.06610964068127541,"245":-0.06596025716275909,"246":0.06105226689375956,"247":-0.021024687508085112,"248":-0.04638566612377015,"249":-0.019016137617853042,"250":0.02104200579737739,"251":-0.0137783151483849,"252":0.017501323557990344,"253":0.01434349252952089,"254":0.014636391176100872,"255":0.08651774475805409,"256":-0.04776750508762258,"257":-0.23926018243191233,"258":-0.09382606973670625,"259":-0.1395397848945062,"260":-0.023874588284851648,"261":0.026379699785012044,"262":0.07119844583671701,"263":0.046304008249557535,"264":-0.14277824570481484,"265":-0.04783895735382294,"266":0.07631282319465833,"267":-0.08084862496029367,"268":0.02622265815167455,"269":-0.01662507112390558,"270":-0.0015020864444042434,"271":-0.021481842212833495,"272":-0.023991131264751785,"273":-0.19083378380217203,"274":-0.10105382829295008,"275":-0.11355710412010465,"276":0.016927115789910175,"277":-0.0072219433299462454,"278":-0.04515609831925653,"279":0.007407228897118576,"280":-0.031841656824631026,"281":-0.03644013394498529,"282":0.035647590171030974,"283":0.005235457402661466,"284":0.017858660948703305,"285":-0.03780280270405518,"286":0.049358337595241934,"287":0.018761620359213194,"288":-0.0031611926610283832,"289":0.12010824952857978,"290":0.047866441302824594,"291":-0.0009183951066881533,"292":0.01369075055832547,"293":-0.03201737439804842,"294":-0.01821226315304687,"295":-0.03173264668361398,"296":-0.06974758096804862,"297":0.005998782909594599,"298":0.08140923116814223,"299":-0.005155367335204478,"300":0.03997699627968338,"301":-0.009746627569594707,"302":0.011531035460263676,"303":0.02314248573604246,"304":-0.05797182835815928,"305":-0.053119770206551904,"306":-0.0308837692451563,"307":-0.06546547871583704,"308":0.05338340395660176,"309":0.07122304748604238,"310":-0.06576914757378338,"311":-0.011985227599157374,"312":-0.051853194000513254,"313":-0.07388963702760397,"314":0.017651176142773714,"315":0.008972604410368838,"316":0.009688397319933432,"317":0.045624306310684835,"318":0.0735923260456478,"319":-0.033896903324131394,"320":-0.020245535492992815,"321":0.02287663206224288,"322":0.0337527629565505,"323":-0.0040140287699083664,"324":-0.13567184141673774,"325":-0.06542927768357858,"326":-0.02103823813620169,"327":0.0031895357795251995,"328":-0.21321230646032469,"329":0.016980606990834448,"330":0.06644829464928367,"331":-0.027270791986515337,"332":-0.08556917235106659,